<?xml version="1.0"?>
<opencv_storage>
<cascade>
  <stageType>BOOST</stageType>
  <featureType>HAAR</featureType>
  <height>20</height>
  <width>60</width>
  <stageParams>
    <boostType>GAB</boostType>
    <minHitRate>9.9900001287460327e-01</minHitRate>
    <maxFalseAlarm>4.0000000596046448e-01</maxFalseAlarm>
    <weightTrimRate>9.4999999999999996e-01</weightTrimRate>
    <maxDepth>1</maxDepth>
    <maxWeakCount>100</maxWeakCount></stageParams>
  <featureParams>
    <maxCatCount>0</maxCatCount>
    <featSize>1</featSize>
    <mode>BASIC</mode></featureParams>
  <stageNum>18</stageNum>
  <stages>
    <!-- stage 0 -->
    <_>
      <maxWeakCount>9</maxWeakCount>
      <stageThreshold>-1.1905333995819092e+00</stageThreshold>
      <weakClassifiers>
        <_>
          <internalNodes>
            0 -1 91 -4.2772676795721054e-02</internalNodes>
          <leafValues>
            6.6666668653488159e-01 -6.0981309413909912e-01</leafValues></_>
        <_>
          <internalNodes>
            0 -1 148 -1.2984896078705788e-02</internalNodes>
          <leafValues>
            6.5688937902450562e-01 -3.7097820639610291e-01</leafValues></_>
        <_>
          <internalNodes>
            0 -1 331 -1.0107593610882759e-02</internalNodes>
          <leafValues>
            5.5719739198684692e-01 -3.6663937568664551e-01</leafValues></_>
        <_>
          <internalNodes>
            0 -1 58 1.0303651914000511e-02</internalNodes>
          <leafValues>
            -2.7286297082901001e-01 6.4025533199310303e-01</leafValues></_>
        <_>
          <internalNodes>
            0 -1 277 -1.3501586392521858e-02</internalNodes>
          <leafValues>
            5.7850986719131470e-01 -2.8356412053108215e-01</leafValues></_>
        <_>
          <internalNodes>
            0 -1 281 5.6408392265439034e-03</internalNodes>
          <leafValues>
            -2.3787884414196014e-01 7.0292687416076660e-01</leafValues></_>
        <_>
          <internalNodes>
            0 -1 80 -1.5203513205051422e-02</internalNodes>
          <leafValues>
            5.6740486621856689e-01 -2.1184962987899780e-01</leafValues></_>
        <_>
          <internalNodes>
            0 -1 128 -2.1889446303248405e-02</internalNodes>
          <leafValues>
            6.3306057453155518e-01 -2.0147405564785004e-01</leafValues></_>
        <_>
          <internalNodes>
            0 -1 164 3.9322767406702042e-04</internalNodes>
          <leafValues>
            -2.1981339156627655e-01 5.8527237176895142e-01</leafValues></_></weakClassifiers></_>
    <!-- stage 1 -->
    <_>
      <maxWeakCount>11</maxWeakCount>
      <stageThreshold>-1.2379305362701416e+00</stageThreshold>
      <weakClassifiers>
        <_>
          <internalNodes>
            0 -1 96 1.6862955689430237e-01</internalNodes>
          <leafValues>
            -5.5408388376235962e-01 7.2413790225982666e-01</leafValues></_>
        <_>
          <internalNodes>
            0 -1 79 -1.0740064084529877e-01</internalNodes>
          <leafValues>
            6.7845505475997925e-01 -2.1509370207786560e-01</leafValues></_>
        <_>
          <internalNodes>
            0 -1 190 -2.2162378299981356e-03</internalNodes>
          <leafValues>
            -8.6043083667755127e-01 1.4371609687805176e-01</leafValues></_>
        <_>
          <internalNodes>
            0 -1 206 2.1133914124220610e-03</internalNodes>
          <leafValues>
            2.1156020462512970e-01 -8.0551809072494507e-01</leafValues></_>
        <_>
          <internalNodes>
            0 -1 243 5.4958820343017578e-02</internalNodes>
          <leafValues>
            -2.6795578002929688e-01 5.5082452297210693e-01</leafValues></_>
        <_>
          <internalNodes>
            0 -1 233 -2.8387823840603232e-04</internalNodes>
          <leafValues>
            -7.2258198261260986e-01 2.2835156321525574e-01</leafValues></_>
        <_>
          <internalNodes>
            0 -1 260 8.5896183736622334e-04</internalNodes>
          <leafValues>
            5.1916815340518951e-02 -9.3218129873275757e-01</leafValues></_>
        <_>
          <internalNodes>
            0 -1 50 1.0148029541596770e-03</internalNodes>
          <leafValues>
            1.1810425668954849e-01 -8.2000470161437988e-01</leafValues></_>
        <_>
          <internalNodes>
            0 -1 154 -2.7748312801122665e-02</internalNodes>
          <leafValues>
            7.2341996431350708e-01 -1.3630102574825287e-01</leafValues></_>
        <_>
          <internalNodes>
            0 -1 253 -5.0822738558053970e-04</internalNodes>
          <leafValues>
            -4.8447823524475098e-01 2.0356976985931396e-01</leafValues></_>
        <_>
          <internalNodes>
            0 -1 386 3.6963438615202904e-03</internalNodes>
          <leafValues>
            -1.4830020070075989e-01 6.8392860889434814e-01</leafValues></_></weakClassifiers></_>
    <!-- stage 2 -->
    <_>
      <maxWeakCount>20</maxWeakCount>
      <stageThreshold>-1.3184620141983032e+00</stageThreshold>
      <weakClassifiers>
        <_>
          <internalNodes>
            0 -1 126 2.2519531846046448e-01</internalNodes>
          <leafValues>
            -5.0862067937850952e-01 6.5714287757873535e-01</leafValues></_>
        <_>
          <internalNodes>
            0 -1 315 -6.1163119971752167e-02</internalNodes>
          <leafValues>
            5.0243788957595825e-01 -2.5562629103660583e-01</leafValues></_>
        <_>
          <internalNodes>
            0 -1 222 -3.8566216826438904e-03</internalNodes>
          <leafValues>
            -6.9009095430374146e-01 1.0669151693582535e-01</leafValues></_>
        <_>
          <internalNodes>
            0 -1 9 -2.0299738273024559e-02</internalNodes>
          <leafValues>
            5.6461459398269653e-01 -1.1118225753307343e-01</leafValues></_>
        <_>
          <internalNodes>
            0 -1 325 1.4180550351738930e-03</internalNodes>
          <leafValues>
            -1.8738447129726410e-01 4.6008583903312683e-01</leafValues></_>
        <_>
          <internalNodes>
            0 -1 409 -9.2211697483435273e-04</internalNodes>
          <leafValues>
            -9.1995662450790405e-01 7.2197310626506805e-02</leafValues></_>
        <_>
          <internalNodes>
            0 -1 64 1.5094594564288855e-03</internalNodes>
          <leafValues>
            -1.8312102556228638e-01 4.8262137174606323e-01</leafValues></_>
        <_>
          <internalNodes>
            0 -1 49 -3.2009314745664597e-03</internalNodes>
          <leafValues>
            -8.1312733888626099e-01 8.8643223047256470e-02</leafValues></_>
        <_>
          <internalNodes>
            0 -1 286 -4.2410142719745636e-02</internalNodes>
          <leafValues>
            4.0592682361602783e-01 -1.9408144056797028e-01</leafValues></_>
        <_>
          <internalNodes>
            0 -1 84 -1.0220749676227570e-01</internalNodes>
          <leafValues>
            6.9492816925048828e-01 -1.3859800994396210e-01</leafValues></_>
        <_>
          <internalNodes>
            0 -1 182 1.1098664253950119e-02</internalNodes>
          <leafValues>
            -2.2298762202262878e-01 3.6532515287399292e-01</leafValues></_>
        <_>
          <internalNodes>
            0 -1 358 2.7915495447814465e-03</internalNodes>
          <leafValues>
            -1.3487914204597473e-01 6.0974586009979248e-01</leafValues></_>
        <_>
          <internalNodes>
            0 -1 242 -3.7711201002821326e-04</internalNodes>
          <leafValues>
            -5.4033929109573364e-01 1.6551275551319122e-01</leafValues></_>
        <_>
          <internalNodes>
            0 -1 23 -1.5709800645709038e-02</internalNodes>
          <leafValues>
            6.5461391210556030e-01 -1.4302818477153778e-01</leafValues></_>
        <_>
          <internalNodes>
            0 -1 236 8.7125995196402073e-04</internalNodes>
          <leafValues>
            1.3132940232753754e-01 -7.0042312145233154e-01</leafValues></_>
        <_>
          <internalNodes>
            0 -1 179 -7.0116058923304081e-03</internalNodes>
          <leafValues>
            4.3502935767173767e-01 -2.0239454507827759e-01</leafValues></_>
        <_>
          <internalNodes>
            0 -1 136 1.6892859712243080e-02</internalNodes>
          <leafValues>
            -1.7587597668170929e-01 4.2607647180557251e-01</leafValues></_>
        <_>
          <internalNodes>
            0 -1 138 1.4236513525247574e-03</internalNodes>
          <leafValues>
            -1.6199637949466705e-01 4.6173939108848572e-01</leafValues></_>
        <_>
          <internalNodes>
            0 -1 316 -3.5474270582199097e-02</internalNodes>
          <leafValues>
            4.7062349319458008e-01 -1.7168450355529785e-01</leafValues></_>
        <_>
          <internalNodes>
            0 -1 187 1.1493676342070103e-02</internalNodes>
          <leafValues>
            -2.0789594948291779e-01 4.2615535855293274e-01</leafValues></_></weakClassifiers></_>
    <!-- stage 3 -->
    <_>
      <maxWeakCount>19</maxWeakCount>
      <stageThreshold>-1.4991133213043213e+00</stageThreshold>
      <weakClassifiers>
        <_>
          <internalNodes>
            0 -1 276 -3.1800244003534317e-02</internalNodes>
          <leafValues>
            4.5644599199295044e-01 -5.4641598463058472e-01</leafValues></_>
        <_>
          <internalNodes>
            0 -1 43 -1.0127514600753784e-02</internalNodes>
          <leafValues>
            5.1791334152221680e-01 -3.2301998138427734e-01</leafValues></_>
        <_>
          <internalNodes>
            0 -1 146 -2.0132018253207207e-03</internalNodes>
          <leafValues>
            5.6262356042861938e-01 -1.7802402377128601e-01</leafValues></_>
        <_>
          <internalNodes>
            0 -1 118 -6.3981642015278339e-03</internalNodes>
          <leafValues>
            5.5527395009994507e-01 -1.8957042694091797e-01</leafValues></_>
        <_>
          <internalNodes>
            0 -1 162 -4.6010394580662251e-03</internalNodes>
          <leafValues>
            4.7496756911277771e-01 -2.2574557363986969e-01</leafValues></_>
        <_>
          <internalNodes>
            0 -1 320 2.2984081879258156e-03</internalNodes>
          <leafValues>
            -1.2145333737134933e-01 6.2979501485824585e-01</leafValues></_>
        <_>
          <internalNodes>
            0 -1 24 -3.3380209933966398e-03</internalNodes>
          <leafValues>
            4.6001434326171875e-01 -1.9265340268611908e-01</leafValues></_>
        <_>
          <internalNodes>
            0 -1 70 2.6347307488322258e-02</internalNodes>
          <leafValues>
            -1.3994288444519043e-01 5.8255231380462646e-01</leafValues></_>
        <_>
          <internalNodes>
            0 -1 155 -1.4598591625690460e-01</internalNodes>
          <leafValues>
            7.7318221330642700e-01 -1.2000303715467453e-01</leafValues></_>
        <_>
          <internalNodes>
            0 -1 334 5.2823428995907307e-03</internalNodes>
          <leafValues>
            -1.2085743993520737e-01 6.0457152128219604e-01</leafValues></_>
        <_>
          <internalNodes>
            0 -1 350 6.9604516029357910e-03</internalNodes>
          <leafValues>
            -1.7641726136207581e-01 4.4780632853507996e-01</leafValues></_>
        <_>
          <internalNodes>
            0 -1 171 -1.5252342447638512e-02</internalNodes>
          <leafValues>
            5.3040421009063721e-01 -2.1834686398506165e-01</leafValues></_>
        <_>
          <internalNodes>
            0 -1 211 -1.6241166740655899e-03</internalNodes>
          <leafValues>
            4.8989924788475037e-01 -2.3003976047039032e-01</leafValues></_>
        <_>
          <internalNodes>
            0 -1 122 9.4279907643795013e-03</internalNodes>
          <leafValues>
            -2.1554273366928101e-01 4.0231621265411377e-01</leafValues></_>
        <_>
          <internalNodes>
            0 -1 120 4.0407152846455574e-03</internalNodes>
          <leafValues>
            -2.1990589797496796e-01 4.6089568734169006e-01</leafValues></_>
        <_>
          <internalNodes>
            0 -1 335 -6.3309457618743181e-04</internalNodes>
          <leafValues>
            3.7643226981163025e-01 -2.4481935799121857e-01</leafValues></_>
        <_>
          <internalNodes>
            0 -1 341 3.6839626263827085e-03</internalNodes>
          <leafValues>
            -1.5739975869655609e-01 5.5582696199417114e-01</leafValues></_>
        <_>
          <internalNodes>
            0 -1 97 1.5968617796897888e-01</internalNodes>
          <leafValues>
            -9.6837550401687622e-02 7.5127512216567993e-01</leafValues></_>
        <_>
          <internalNodes>
            0 -1 231 3.7745968438684940e-03</internalNodes>
          <leafValues>
            1.7388086020946503e-01 -5.9519183635711670e-01</leafValues></_></weakClassifiers></_>
    <!-- stage 4 -->
    <_>
      <maxWeakCount>20</maxWeakCount>
      <stageThreshold>-1.1420266628265381e+00</stageThreshold>
      <weakClassifiers>
        <_>
          <internalNodes>
            0 -1 104 -3.1237062066793442e-02</internalNodes>
          <leafValues>
            2.3312883079051971e-01 -5.0492608547210693e-01</leafValues></_>
        <_>
          <internalNodes>
            0 -1 385 -7.9250475391745567e-04</internalNodes>
          <leafValues>
            5.4374861717224121e-01 -2.0987318456172943e-01</leafValues></_>
        <_>
          <internalNodes>
            0 -1 98 -2.2150089498609304e-03</internalNodes>
          <leafValues>
            4.2797505855560303e-01 -2.6591980457305908e-01</leafValues></_>
        <_>
          <internalNodes>
            0 -1 109 1.2331105768680573e-01</internalNodes>
          <leafValues>
            -1.8081685900688171e-01 4.4861006736755371e-01</leafValues></_>
        <_>
          <internalNodes>
            0 -1 72 -4.1210348717868328e-04</internalNodes>
          <leafValues>
            4.4841596484184265e-01 -1.9379188120365143e-01</leafValues></_>
        <_>
          <internalNodes>
            0 -1 317 6.2706181779503822e-04</internalNodes>
          <leafValues>
            -2.0469270646572113e-01 4.1581642627716064e-01</leafValues></_>
        <_>
          <internalNodes>
            0 -1 419 7.8742086770944297e-05</internalNodes>
          <leafValues>
            -1.7389914393424988e-01 4.3302503228187561e-01</leafValues></_>
        <_>
          <internalNodes>
            0 -1 313 4.9205170944333076e-04</internalNodes>
          <leafValues>
            -1.7413742840290070e-01 4.2305886745452881e-01</leafValues></_>
        <_>
          <internalNodes>
            0 -1 298 -1.4242492616176605e-02</internalNodes>
          <leafValues>
            4.3420049548149109e-01 -2.0044922828674316e-01</leafValues></_>
        <_>
          <internalNodes>
            0 -1 195 -3.8603212684392929e-02</internalNodes>
          <leafValues>
            5.8686745166778564e-01 -1.3355390727519989e-01</leafValues></_>
        <_>
          <internalNodes>
            0 -1 45 8.2146818749606609e-04</internalNodes>
          <leafValues>
            1.1630322784185410e-01 -7.0651674270629883e-01</leafValues></_>
        <_>
          <internalNodes>
            0 -1 357 8.1540449173189700e-05</internalNodes>
          <leafValues>
            -2.6654437184333801e-01 3.5260114073753357e-01</leafValues></_>
        <_>
          <internalNodes>
            0 -1 370 7.2897394420579076e-04</internalNodes>
          <leafValues>
            -1.8056972324848175e-01 4.2847022414207458e-01</leafValues></_>
        <_>
          <internalNodes>
            0 -1 391 -8.4869819693267345e-04</internalNodes>
          <leafValues>
            3.2961812615394592e-01 -2.5643065571784973e-01</leafValues></_>
        <_>
          <internalNodes>
            0 -1 35 -2.1798789501190186e-02</internalNodes>
          <leafValues>
            6.1964577436447144e-01 -1.4578256011009216e-01</leafValues></_>
        <_>
          <internalNodes>
            0 -1 248 1.7532024066895247e-03</internalNodes>
          <leafValues>
            1.2274143844842911e-01 -8.5739982128143311e-01</leafValues></_>
        <_>
          <internalNodes>
            0 -1 111 1.2953801080584526e-02</internalNodes>
          <leafValues>
            -1.9842281937599182e-01 5.0116205215454102e-01</leafValues></_>
        <_>
          <internalNodes>
            0 -1 114 1.9516083411872387e-03</internalNodes>
          <leafValues>
            -2.4261249601840973e-01 3.9738848805427551e-01</leafValues></_>
        <_>
          <internalNodes>
            0 -1 21 1.0255087912082672e-01</internalNodes>
          <leafValues>
            -1.8300020694732666e-01 4.5095351338386536e-01</leafValues></_>
        <_>
          <internalNodes>
            0 -1 168 1.3418013695627451e-03</internalNodes>
          <leafValues>
            -2.2166061401367188e-01 4.4661763310432434e-01</leafValues></_></weakClassifiers></_>
    <!-- stage 5 -->
    <_>
      <maxWeakCount>21</maxWeakCount>
      <stageThreshold>-1.1737827062606812e+00</stageThreshold>
      <weakClassifiers>
        <_>
          <internalNodes>
            0 -1 266 -4.5024484395980835e-02</internalNodes>
          <leafValues>
            3.6040610074996948e-01 -4.3039318919181824e-01</leafValues></_>
        <_>
          <internalNodes>
            0 -1 204 2.1371087059378624e-03</internalNodes>
          <leafValues>
            6.0035500675439835e-02 -8.6515122652053833e-01</leafValues></_>
        <_>
          <internalNodes>
            0 -1 188 -2.9536997899413109e-03</internalNodes>
          <leafValues>
            -7.8916829824447632e-01 1.1196842044591904e-01</leafValues></_>
        <_>
          <internalNodes>
            0 -1 124 -4.2583696544170380e-02</internalNodes>
          <leafValues>
            3.5540071129798889e-01 -2.1039998531341553e-01</leafValues></_>
        <_>
          <internalNodes>
            0 -1 2 -4.5162469148635864e-02</internalNodes>
          <leafValues>
            4.6316093206405640e-01 -1.2495250999927521e-01</leafValues></_>
        <_>
          <internalNodes>
            0 -1 303 2.0222854800522327e-03</internalNodes>
          <leafValues>
            -1.5719258785247803e-01 4.1053265333175659e-01</leafValues></_>
        <_>
          <internalNodes>
            0 -1 144 2.1572754485532641e-04</internalNodes>
          <leafValues>
            -1.9219031929969788e-01 3.3328881859779358e-01</leafValues></_>
        <_>
          <internalNodes>
            0 -1 235 -2.6958349626511335e-03</internalNodes>
          <leafValues>
            -6.0416579246520996e-01 1.1880472302436829e-01</leafValues></_>
        <_>
          <internalNodes>
            0 -1 434 8.2596263382583857e-04</internalNodes>
          <leafValues>
            8.2289926707744598e-02 -6.8435829877853394e-01</leafValues></_>
        <_>
          <internalNodes>
            0 -1 267 1.7739128321409225e-02</internalNodes>
          <leafValues>
            -1.6445893049240112e-01 3.8010534644126892e-01</leafValues></_>
        <_>
          <internalNodes>
            0 -1 259 -3.0224533475120552e-05</internalNodes>
          <leafValues>
            2.7226257324218750e-01 -2.2160907089710236e-01</leafValues></_>
        <_>
          <internalNodes>
            0 -1 392 -6.7644298542290926e-04</internalNodes>
          <leafValues>
            -6.9853466749191284e-01 9.7821168601512909e-02</leafValues></_>
        <_>
          <internalNodes>
            0 -1 321 -9.1579873114824295e-03</internalNodes>
          <leafValues>
            4.5915371179580688e-01 -1.4880554378032684e-01</leafValues></_>
        <_>
          <internalNodes>
            0 -1 378 5.7358900085091591e-04</internalNodes>
          <leafValues>
            -1.8708081543445587e-01 3.7624192237854004e-01</leafValues></_>
        <_>
          <internalNodes>
            0 -1 250 7.0689856074750423e-03</internalNodes>
          <leafValues>
            7.6055318117141724e-02 -8.0150389671325684e-01</leafValues></_>
        <_>
          <internalNodes>
            0 -1 301 1.1420291848480701e-03</internalNodes>
          <leafValues>
            -1.7404024302959442e-01 3.7647908926010132e-01</leafValues></_>
        <_>
          <internalNodes>
            0 -1 275 -1.7362967133522034e-02</internalNodes>
          <leafValues>
            4.6121069788932800e-01 -1.3315773010253906e-01</leafValues></_>
        <_>
          <internalNodes>
            0 -1 279 -1.2226488906890154e-03</internalNodes>
          <leafValues>
            -6.9153600931167603e-01 8.4748499095439911e-02</leafValues></_>
        <_>
          <internalNodes>
            0 -1 374 4.0847170748747885e-04</internalNodes>
          <leafValues>
            -2.0268638432025909e-01 3.1695136427879333e-01</leafValues></_>
        <_>
          <internalNodes>
            0 -1 249 2.2834730043541640e-04</internalNodes>
          <leafValues>
            9.1865815222263336e-02 -6.9261968135833740e-01</leafValues></_>
        <_>
          <internalNodes>
            0 -1 388 2.0313168352004141e-04</internalNodes>
          <leafValues>
            -2.2086420655250549e-01 2.7919971942901611e-01</leafValues></_></weakClassifiers></_>
    <!-- stage 6 -->
    <_>
      <maxWeakCount>21</maxWeakCount>
      <stageThreshold>-1.2097949981689453e+00</stageThreshold>
      <weakClassifiers>
        <_>
          <internalNodes>
            0 -1 5 -1.1957857757806778e-01</internalNodes>
          <leafValues>
            2.9966330528259277e-01 -5.0297266244888306e-01</leafValues></_>
        <_>
          <internalNodes>
            0 -1 375 2.0952451974153519e-02</internalNodes>
          <leafValues>
            -1.8832093477249146e-01 5.1232254505157471e-01</leafValues></_>
        <_>
          <internalNodes>
            0 -1 209 -1.8837329698726535e-03</internalNodes>
          <leafValues>
            -7.2839713096618652e-01 8.1643559038639069e-02</leafValues></_>
        <_>
          <internalNodes>
            0 -1 240 -1.4203314203768969e-03</internalNodes>
          <leafValues>
            -6.7578679323196411e-01 1.7923401296138763e-01</leafValues></_>
        <_>
          <internalNodes>
            0 -1 163 2.2843963233754039e-04</internalNodes>
          <leafValues>
            -1.9547972083091736e-01 4.5679143071174622e-01</leafValues></_>
        <_>
          <internalNodes>
            0 -1 344 -2.1094668190926313e-03</internalNodes>
          <leafValues>
            2.9868507385253906e-01 -2.1631172299385071e-01</leafValues></_>
        <_>
          <internalNodes>
            0 -1 362 -1.8576384754851460e-03</internalNodes>
          <leafValues>
            4.8805922269821167e-01 -1.2035664170980453e-01</leafValues></_>
        <_>
          <internalNodes>
            0 -1 199 3.6292234435677528e-03</internalNodes>
          <leafValues>
            7.6837301254272461e-02 -8.2803231477737427e-01</leafValues></_>
        <_>
          <internalNodes>
            0 -1 12 -1.8601316958665848e-02</internalNodes>
          <leafValues>
            -8.1863147020339966e-01 6.5065652132034302e-02</leafValues></_>
        <_>
          <internalNodes>
            0 -1 265 -1.2061418965458870e-03</internalNodes>
          <leafValues>
            -6.5354698896408081e-01 8.8140912353992462e-02</leafValues></_>
        <_>
          <internalNodes>
            0 -1 117 -1.1294834548607469e-03</internalNodes>
          <leafValues>
            5.6703370809555054e-01 -1.1421678215265274e-01</leafValues></_>
        <_>
          <internalNodes>
            0 -1 15 -2.1300828084349632e-03</internalNodes>
          <leafValues>
            -8.5128277540206909e-01 7.6538883149623871e-02</leafValues></_>
        <_>
          <internalNodes>
            0 -1 112 -1.3857336016371846e-03</internalNodes>
          <leafValues>
            3.6093106865882874e-01 -1.9567239284515381e-01</leafValues></_>
        <_>
          <internalNodes>
            0 -1 106 2.5521189672872424e-04</internalNodes>
          <leafValues>
            -2.0611481368541718e-01 3.5253587365150452e-01</leafValues></_>
        <_>
          <internalNodes>
            0 -1 433 -3.7148006958886981e-04</internalNodes>
          <leafValues>
            -6.1583590507507324e-01 1.2138785421848297e-01</leafValues></_>
        <_>
          <internalNodes>
            0 -1 384 -1.2462544254958630e-03</internalNodes>
          <leafValues>
            4.4596707820892334e-01 -1.6314695775508881e-01</leafValues></_>
        <_>
          <internalNodes>
            0 -1 214 -1.9003730267286301e-03</internalNodes>
          <leafValues>
            -7.1530646085739136e-01 9.8462186753749847e-02</leafValues></_>
        <_>
          <internalNodes>
            0 -1 131 3.3523028250783682e-03</internalNodes>
          <leafValues>
            -1.3764777779579163e-01 5.1730358600616455e-01</leafValues></_>
        <_>
          <internalNodes>
            0 -1 245 -1.0178516618907452e-02</internalNodes>
          <leafValues>
            5.8955079317092896e-01 -1.1344756186008453e-01</leafValues></_>
        <_>
          <internalNodes>
            0 -1 205 2.1816974505782127e-02</internalNodes>
          <leafValues>
            9.8635032773017883e-02 -8.4688013792037964e-01</leafValues></_>
        <_>
          <internalNodes>
            0 -1 93 2.3095812648534775e-03</internalNodes>
          <leafValues>
            -1.3764341175556183e-01 5.9690040349960327e-01</leafValues></_></weakClassifiers></_>
    <!-- stage 7 -->
    <_>
      <maxWeakCount>25</maxWeakCount>
      <stageThreshold>-1.2536671161651611e+00</stageThreshold>
      <weakClassifiers>
        <_>
          <internalNodes>
            0 -1 83 1.1630274355411530e-01</internalNodes>
          <leafValues>
            -4.2332613468170166e-01 2.7358490228652954e-01</leafValues></_>
        <_>
          <internalNodes>
            0 -1 356 -8.1948023289442062e-03</internalNodes>
          <leafValues>
            6.0080415010452271e-01 -1.4313927292823792e-01</leafValues></_>
        <_>
          <internalNodes>
            0 -1 340 7.7946148812770844e-03</internalNodes>
          <leafValues>
            -1.2883555889129639e-01 5.4904079437255859e-01</leafValues></_>
        <_>
          <internalNodes>
            0 -1 167 2.0325028162915260e-04</internalNodes>
          <leafValues>
            -1.4981064200401306e-01 3.7500622868537903e-01</leafValues></_>
        <_>
          <internalNodes>
            0 -1 270 9.6400530310347676e-04</internalNodes>
          <leafValues>
            9.7397908568382263e-02 -6.6373187303543091e-01</leafValues></_>
        <_>
          <internalNodes>
            0 -1 297 5.8522186009213328e-05</internalNodes>
          <leafValues>
            -1.9122216105461121e-01 3.3512917160987854e-01</leafValues></_>
        <_>
          <internalNodes>
            0 -1 348 2.7887185569852591e-04</internalNodes>
          <leafValues>
            -1.7388413846492767e-01 4.1953036189079285e-01</leafValues></_>
        <_>
          <internalNodes>
            0 -1 166 -2.2972276201471686e-04</internalNodes>
          <leafValues>
            4.5877164602279663e-01 -1.3193537294864655e-01</leafValues></_>
        <_>
          <internalNodes>
            0 -1 127 4.5990635408088565e-04</internalNodes>
          <leafValues>
            -1.1586602032184601e-01 4.9783986806869507e-01</leafValues></_>
        <_>
          <internalNodes>
            0 -1 418 1.6455918084830046e-03</internalNodes>
          <leafValues>
            1.0625805705785751e-01 -6.2413829565048218e-01</leafValues></_>
        <_>
          <internalNodes>
            0 -1 287 -2.7650196105241776e-02</internalNodes>
          <leafValues>
            3.0456551909446716e-01 -1.9999848306179047e-01</leafValues></_>
        <_>
          <internalNodes>
            0 -1 268 1.4542421558871865e-03</internalNodes>
          <leafValues>
            8.3002544939517975e-02 -6.4772570133209229e-01</leafValues></_>
        <_>
          <internalNodes>
            0 -1 351 5.2202334627509117e-03</internalNodes>
          <leafValues>
            -1.0440430790185928e-01 6.1910617351531982e-01</leafValues></_>
        <_>
          <internalNodes>
            0 -1 345 -2.5646146386861801e-03</internalNodes>
          <leafValues>
            4.2360273003578186e-01 -1.5498240292072296e-01</leafValues></_>
        <_>
          <internalNodes>
            0 -1 191 -1.1345678940415382e-03</internalNodes>
          <leafValues>
            5.0103169679641724e-01 -1.1297899484634399e-01</leafValues></_>
        <_>
          <internalNodes>
            0 -1 437 -1.0688479058444500e-02</internalNodes>
          <leafValues>
            -7.5467509031295776e-01 1.0610859096050262e-01</leafValues></_>
        <_>
          <internalNodes>
            0 -1 141 1.8751982133835554e-03</internalNodes>
          <leafValues>
            -2.5452068448066711e-01 2.6245224475860596e-01</leafValues></_>
        <_>
          <internalNodes>
            0 -1 442 1.8457658588886261e-03</internalNodes>
          <leafValues>
            1.6650831699371338e-01 -3.9023014903068542e-01</leafValues></_>
        <_>
          <internalNodes>
            0 -1 196 3.0136576388031244e-03</internalNodes>
          <leafValues>
            -1.7731028795242310e-01 3.6158299446105957e-01</leafValues></_>
        <_>
          <internalNodes>
            0 -1 247 -1.0620516259223223e-03</internalNodes>
          <leafValues>
            -6.2192541360855103e-01 1.1964911967515945e-01</leafValues></_>
        <_>
          <internalNodes>
            0 -1 89 1.8565438222140074e-04</internalNodes>
          <leafValues>
            -2.6565223932266235e-01 2.4799594283103943e-01</leafValues></_>
        <_>
          <internalNodes>
            0 -1 54 -9.9039860069751740e-03</internalNodes>
          <leafValues>
            2.7363586425781250e-01 -2.5213721394538879e-01</leafValues></_>
        <_>
          <internalNodes>
            0 -1 311 5.2540257456712425e-05</internalNodes>
          <leafValues>
            -1.8480956554412842e-01 3.3170068264007568e-01</leafValues></_>
        <_>
          <internalNodes>
            0 -1 414 -1.1568497866392136e-03</internalNodes>
          <leafValues>
            3.0901554226875305e-01 -2.1762293577194214e-01</leafValues></_>
        <_>
          <internalNodes>
            0 -1 326 -9.1889929026365280e-03</internalNodes>
          <leafValues>
            3.1401991844177246e-01 -1.9655954837799072e-01</leafValues></_></weakClassifiers></_>
    <!-- stage 8 -->
    <_>
      <maxWeakCount>21</maxWeakCount>
      <stageThreshold>-1.0941731929779053e+00</stageThreshold>
      <weakClassifiers>
        <_>
          <internalNodes>
            0 -1 272 -4.1585110127925873e-02</internalNodes>
          <leafValues>
            2.3364485800266266e-01 -5.0061202049255371e-01</leafValues></_>
        <_>
          <internalNodes>
            0 -1 393 2.1587586961686611e-03</internalNodes>
          <leafValues>
            9.4162538647651672e-02 -7.3129725456237793e-01</leafValues></_>
        <_>
          <internalNodes>
            0 -1 32 -3.5815783776342869e-03</internalNodes>
          <leafValues>
            -5.1994556188583374e-01 2.0384822785854340e-01</leafValues></_>
        <_>
          <internalNodes>
            0 -1 353 4.0088286623358727e-03</internalNodes>
          <leafValues>
            8.4593959152698517e-02 -6.5330666303634644e-01</leafValues></_>
        <_>
          <internalNodes>
            0 -1 367 -1.1839391663670540e-03</internalNodes>
          <leafValues>
            -7.4047899246215820e-01 1.1777111142873764e-01</leafValues></_>
        <_>
          <internalNodes>
            0 -1 244 -2.2317653056234121e-03</internalNodes>
          <leafValues>
            -7.4656486511230469e-01 9.9123641848564148e-02</leafValues></_>
        <_>
          <internalNodes>
            0 -1 323 1.3731405138969421e-02</internalNodes>
          <leafValues>
            -2.0174852013587952e-01 4.8067563772201538e-01</leafValues></_>
        <_>
          <internalNodes>
            0 -1 412 2.6483736000955105e-03</internalNodes>
          <leafValues>
            1.1026924848556519e-01 -7.7085155248641968e-01</leafValues></_>
        <_>
          <internalNodes>
            0 -1 35 -2.1265588700771332e-02</internalNodes>
          <leafValues>
            4.5345726609230042e-01 -1.7565904557704926e-01</leafValues></_>
        <_>
          <internalNodes>
            0 -1 285 9.1848114971071482e-04</internalNodes>
          <leafValues>
            1.1239182204008102e-01 -6.1382973194122314e-01</leafValues></_>
        <_>
          <internalNodes>
            0 -1 427 -1.0498808696866035e-03</internalNodes>
          <leafValues>
            -7.0075470209121704e-01 8.6716808378696442e-02</leafValues></_>
        <_>
          <internalNodes>
            0 -1 426 1.2135464930906892e-04</internalNodes>
          <leafValues>
            1.8011534214019775e-01 -3.7611004710197449e-01</leafValues></_>
        <_>
          <internalNodes>
            0 -1 221 -2.7876808308064938e-03</internalNodes>
          <leafValues>
            -5.4995560646057129e-01 1.4512082934379578e-01</leafValues></_>
        <_>
          <internalNodes>
            0 -1 105 -7.9363413155078888e-02</internalNodes>
          <leafValues>
            4.4431817531585693e-01 -1.9862872362136841e-01</leafValues></_>
        <_>
          <internalNodes>
            0 -1 115 5.2035669796168804e-04</internalNodes>
          <leafValues>
            -9.9885232746601105e-02 7.4593496322631836e-01</leafValues></_>
        <_>
          <internalNodes>
            0 -1 241 -1.4239943120628595e-03</internalNodes>
          <leafValues>
            -5.4164922237396240e-01 1.3927656412124634e-01</leafValues></_>
        <_>
          <internalNodes>
            0 -1 160 -1.5847925096750259e-02</internalNodes>
          <leafValues>
            4.9800527095794678e-01 -1.5914195775985718e-01</leafValues></_>
        <_>
          <internalNodes>
            0 -1 123 1.2070673983544111e-03</internalNodes>
          <leafValues>
            7.6575092971324921e-02 -9.2268711328506470e-01</leafValues></_>
        <_>
          <internalNodes>
            0 -1 330 4.2419303208589554e-03</internalNodes>
          <leafValues>
            -2.1431264281272888e-01 3.6771428585052490e-01</leafValues></_>
        <_>
          <internalNodes>
            0 -1 74 2.4936296045780182e-02</internalNodes>
          <leafValues>
            -1.9246444106101990e-01 4.0033698081970215e-01</leafValues></_>
        <_>
          <internalNodes>
            0 -1 180 1.5821143751963973e-03</internalNodes>
          <leafValues>
            -1.5425749123096466e-01 5.1836478710174561e-01</leafValues></_></weakClassifiers></_>
    <!-- stage 9 -->
    <_>
      <maxWeakCount>24</maxWeakCount>
      <stageThreshold>-1.0183429718017578e+00</stageThreshold>
      <weakClassifiers>
        <_>
          <internalNodes>
            0 -1 359 -2.2197843063622713e-03</internalNodes>
          <leafValues>
            4.8387095332145691e-01 -3.8856014609336853e-01</leafValues></_>
        <_>
          <internalNodes>
            0 -1 181 5.0803674384951591e-03</internalNodes>
          <leafValues>
            -1.3630928099155426e-01 5.6977272033691406e-01</leafValues></_>
        <_>
          <internalNodes>
            0 -1 186 4.5615344424732029e-04</internalNodes>
          <leafValues>
            -1.5741054713726044e-01 4.0848851203918457e-01</leafValues></_>
        <_>
          <internalNodes>
            0 -1 360 3.7746987072750926e-04</internalNodes>
          <leafValues>
            -2.3548951745033264e-01 2.9590070247650146e-01</leafValues></_>
        <_>
          <internalNodes>
            0 -1 215 -1.2024501338601112e-03</internalNodes>
          <leafValues>
            -4.4575855135917664e-01 1.6426083445549011e-01</leafValues></_>
        <_>
          <internalNodes>
            0 -1 336 1.2523693731054664e-03</internalNodes>
          <leafValues>
            -9.6733316779136658e-02 5.4891800880432129e-01</leafValues></_>
        <_>
          <internalNodes>
            0 -1 177 -1.4505183789879084e-03</internalNodes>
          <leafValues>
            -4.8003995418548584e-01 1.3261511921882629e-01</leafValues></_>
        <_>
          <internalNodes>
            0 -1 333 2.1398458629846573e-03</internalNodes>
          <leafValues>
            -1.3816349208354950e-01 4.6308261156082153e-01</leafValues></_>
        <_>
          <internalNodes>
            0 -1 389 3.1610042788088322e-04</internalNodes>
          <leafValues>
            -1.3268406689167023e-01 3.9151293039321899e-01</leafValues></_>
        <_>
          <internalNodes>
            0 -1 423 -2.7590699028223753e-04</internalNodes>
          <leafValues>
            -5.1644366979598999e-01 1.0002645105123520e-01</leafValues></_>
        <_>
          <internalNodes>
            0 -1 56 1.2345078866928816e-03</internalNodes>
          <leafValues>
            -1.0810833424329758e-01 5.8308821916580200e-01</leafValues></_>
        <_>
          <internalNodes>
            0 -1 170 -3.8214232772588730e-03</internalNodes>
          <leafValues>
            2.9941910505294800e-01 -1.8578259646892548e-01</leafValues></_>
        <_>
          <internalNodes>
            0 -1 202 -3.1612344086170197e-02</internalNodes>
          <leafValues>
            3.7521976232528687e-01 -1.5646119415760040e-01</leafValues></_>
        <_>
          <internalNodes>
            0 -1 133 2.7199913165532053e-04</internalNodes>
          <leafValues>
            -1.5959186851978302e-01 3.7502434849739075e-01</leafValues></_>
        <_>
          <internalNodes>
            0 -1 183 -7.2470724582672119e-02</internalNodes>
          <leafValues>
            2.7435588836669922e-01 -2.1478031575679779e-01</leafValues></_>
        <_>
          <internalNodes>
            0 -1 314 1.2297896319068968e-04</internalNodes>
          <leafValues>
            -1.7432695627212524e-01 3.1474065780639648e-01</leafValues></_>
        <_>
          <internalNodes>
            0 -1 293 8.8910583872348070e-04</internalNodes>
          <leafValues>
            9.4457320868968964e-02 -6.1971986293792725e-01</leafValues></_>
        <_>
          <internalNodes>
            0 -1 364 2.6221023290418088e-04</internalNodes>
          <leafValues>
            -1.4361687004566193e-01 4.6883079409599304e-01</leafValues></_>
        <_>
          <internalNodes>
            0 -1 78 -1.2100867461413145e-03</internalNodes>
          <leafValues>
            -5.4559701681137085e-01 1.2098218500614166e-01</leafValues></_>
        <_>
          <internalNodes>
            0 -1 145 2.0737601444125175e-03</internalNodes>
          <leafValues>
            -1.1903893947601318e-01 5.0070613622665405e-01</leafValues></_>
        <_>
          <internalNodes>
            0 -1 184 -6.4645631937310100e-04</internalNodes>
          <leafValues>
            3.3206889033317566e-01 -1.6801846027374268e-01</leafValues></_>
        <_>
          <internalNodes>
            0 -1 295 -4.0858155116438866e-03</internalNodes>
          <leafValues>
            5.2240997552871704e-01 -1.0637261718511581e-01</leafValues></_>
        <_>
          <internalNodes>
            0 -1 94 -6.7101106047630310e-02</internalNodes>
          <leafValues>
            5.0138586759567261e-01 -1.1623702198266983e-01</leafValues></_>
        <_>
          <internalNodes>
            0 -1 129 3.9959125220775604e-02</internalNodes>
          <leafValues>
            -1.8045800924301147e-01 3.6363843083381653e-01</leafValues></_></weakClassifiers></_>
    <!-- stage 10 -->
    <_>
      <maxWeakCount>31</maxWeakCount>
      <stageThreshold>-1.1637698411941528e+00</stageThreshold>
      <weakClassifiers>
        <_>
          <internalNodes>
            0 -1 8 -1.8940050154924393e-02</internalNodes>
          <leafValues>
            2.0634920895099640e-01 -3.9304530620574951e-01</leafValues></_>
        <_>
          <internalNodes>
            0 -1 292 -1.1099212802946568e-02</internalNodes>
          <leafValues>
            5.4226326942443848e-01 -1.1214160919189453e-01</leafValues></_>
        <_>
          <internalNodes>
            0 -1 107 2.7962619788013399e-04</internalNodes>
          <leafValues>
            -1.5679162740707397e-01 3.5238707065582275e-01</leafValues></_>
        <_>
          <internalNodes>
            0 -1 59 -8.0654700286686420e-04</internalNodes>
          <leafValues>
            -7.6485598087310791e-01 8.1473529338836670e-02</leafValues></_>
        <_>
          <internalNodes>
            0 -1 67 -3.5930615849792957e-03</internalNodes>
          <leafValues>
            4.7900649905204773e-01 -1.0137404501438141e-01</leafValues></_>
        <_>
          <internalNodes>
            0 -1 246 -1.9071267452090979e-03</internalNodes>
          <leafValues>
            -7.1434879302978516e-01 7.6925702393054962e-02</leafValues></_>
        <_>
          <internalNodes>
            0 -1 408 -2.5213806657120585e-04</internalNodes>
          <leafValues>
            3.7286573648452759e-01 -1.4595529437065125e-01</leafValues></_>
        <_>
          <internalNodes>
            0 -1 234 2.3820187197998166e-04</internalNodes>
          <leafValues>
            -1.7808665335178375e-01 2.7809661626815796e-01</leafValues></_>
        <_>
          <internalNodes>
            0 -1 18 1.4932217309251428e-03</internalNodes>
          <leafValues>
            7.0194967091083527e-02 -7.0891249179840088e-01</leafValues></_>
        <_>
          <internalNodes>
            0 -1 26 -6.8376036360859871e-03</internalNodes>
          <leafValues>
            4.4026249647140503e-01 -1.3040512800216675e-01</leafValues></_>
        <_>
          <internalNodes>
            0 -1 61 9.7784434910863638e-04</internalNodes>
          <leafValues>
            7.7535495162010193e-02 -6.9355392456054688e-01</leafValues></_>
        <_>
          <internalNodes>
            0 -1 159 2.7996214339509606e-04</internalNodes>
          <leafValues>
            -2.0103296637535095e-01 2.6559859514236450e-01</leafValues></_>
        <_>
          <internalNodes>
            0 -1 219 3.7949383258819580e-03</internalNodes>
          <leafValues>
            -2.4566726386547089e-01 2.2957164049148560e-01</leafValues></_>
        <_>
          <internalNodes>
            0 -1 226 -4.4353189878165722e-04</internalNodes>
          <leafValues>
            3.1735399365425110e-01 -1.7743186652660370e-01</leafValues></_>
        <_>
          <internalNodes>
            0 -1 10 -3.6287531256675720e-03</internalNodes>
          <leafValues>
            -6.8859988451004028e-01 8.4633409976959229e-02</leafValues></_>
        <_>
          <internalNodes>
            0 -1 48 1.5267518162727356e-01</internalNodes>
          <leafValues>
            6.5943412482738495e-02 -6.2729358673095703e-01</leafValues></_>
        <_>
          <internalNodes>
            0 -1 81 -8.1747779622673988e-03</internalNodes>
          <leafValues>
            2.4310597777366638e-01 -2.2728186845779419e-01</leafValues></_>
        <_>
          <internalNodes>
            0 -1 175 -2.3960988619364798e-04</internalNodes>
          <leafValues>
            4.6641194820404053e-01 -1.2292549759149551e-01</leafValues></_>
        <_>
          <internalNodes>
            0 -1 158 4.2616523569449782e-04</internalNodes>
          <leafValues>
            -1.6298429667949677e-01 3.2693397998809814e-01</leafValues></_>
        <_>
          <internalNodes>
            0 -1 274 3.2549409661442041e-04</internalNodes>
          <leafValues>
            1.1954823881387711e-01 -4.5263817906379700e-01</leafValues></_>
        <_>
          <internalNodes>
            0 -1 135 1.0079598054289818e-02</internalNodes>
          <leafValues>
            -2.3047526180744171e-01 2.4162365496158600e-01</leafValues></_>
        <_>
          <internalNodes>
            0 -1 397 -5.0724629545584321e-04</internalNodes>
          <leafValues>
            4.1559854149818420e-01 -1.3798928260803223e-01</leafValues></_>
        <_>
          <internalNodes>
            0 -1 328 2.5434442795813084e-03</internalNodes>
          <leafValues>
            6.3636377453804016e-02 -9.6202957630157471e-01</leafValues></_>
        <_>
          <internalNodes>
            0 -1 307 1.6483329818584025e-04</internalNodes>
          <leafValues>
            -1.9007645547389984e-01 3.2515859603881836e-01</leafValues></_>
        <_>
          <internalNodes>
            0 -1 421 -2.3000892251729965e-02</internalNodes>
          <leafValues>
            -8.6118233203887939e-01 5.9102252125740051e-02</leafValues></_>
        <_>
          <internalNodes>
            0 -1 69 3.6169390659779310e-04</internalNodes>
          <leafValues>
            -1.3731344044208527e-01 4.2385506629943848e-01</leafValues></_>
        <_>
          <internalNodes>
            0 -1 95 9.7410250455141068e-03</internalNodes>
          <leafValues>
            -2.4609282612800598e-01 2.3350609838962555e-01</leafValues></_>
        <_>
          <internalNodes>
            0 -1 132 -9.6932795713655651e-05</internalNodes>
          <leafValues>
            3.5674700140953064e-01 -1.7004601657390594e-01</leafValues></_>
        <_>
          <internalNodes>
            0 -1 121 -9.9981355015188456e-04</internalNodes>
          <leafValues>
            -6.1466205120086670e-01 9.9876187741756439e-02</leafValues></_>
        <_>
          <internalNodes>
            0 -1 254 3.4117891918867826e-03</internalNodes>
          <leafValues>
            -1.7640207707881927e-01 3.4550073742866516e-01</leafValues></_>
        <_>
          <internalNodes>
            0 -1 324 -2.3330277763307095e-03</internalNodes>
          <leafValues>
            4.8489618301391602e-01 -1.2556973099708557e-01</leafValues></_></weakClassifiers></_>
    <!-- stage 11 -->
    <_>
      <maxWeakCount>29</maxWeakCount>
      <stageThreshold>-1.0670596361160278e+00</stageThreshold>
      <weakClassifiers>
        <_>
          <internalNodes>
            0 -1 46 -6.6445721313357353e-03</internalNodes>
          <leafValues>
            5.2631580829620361e-01 -3.5216572880744934e-01</leafValues></_>
        <_>
          <internalNodes>
            0 -1 41 -1.1432550847530365e-02</internalNodes>
          <leafValues>
            4.4578751921653748e-01 -1.4617934823036194e-01</leafValues></_>
        <_>
          <internalNodes>
            0 -1 239 4.3790452182292938e-03</internalNodes>
          <leafValues>
            1.1591390520334244e-01 -6.3893824815750122e-01</leafValues></_>
        <_>
          <internalNodes>
            0 -1 366 1.7548656614962965e-04</internalNodes>
          <leafValues>
            -1.3618557155132294e-01 3.4363889694213867e-01</leafValues></_>
        <_>
          <internalNodes>
            0 -1 428 -6.8485387600958347e-05</internalNodes>
          <leafValues>
            -4.1671833395957947e-01 1.0483267903327942e-01</leafValues></_>
        <_>
          <internalNodes>
            0 -1 302 2.5778799317777157e-04</internalNodes>
          <leafValues>
            -1.5751279890537262e-01 3.1897807121276855e-01</leafValues></_>
        <_>
          <internalNodes>
            0 -1 262 5.7174358516931534e-04</internalNodes>
          <leafValues>
            7.1856327354907990e-02 -7.1269655227661133e-01</leafValues></_>
        <_>
          <internalNodes>
            0 -1 71 2.2796822304371744e-04</internalNodes>
          <leafValues>
            -1.1926918476819992e-01 4.1999188065528870e-01</leafValues></_>
        <_>
          <internalNodes>
            0 -1 300 -3.0276379548013210e-03</internalNodes>
          <leafValues>
            2.6242828369140625e-01 -1.8062734603881836e-01</leafValues></_>
        <_>
          <internalNodes>
            0 -1 152 -5.2495370618999004e-04</internalNodes>
          <leafValues>
            -7.7361524105072021e-01 8.1498384475708008e-02</leafValues></_>
        <_>
          <internalNodes>
            0 -1 396 4.4559928937815130e-04</internalNodes>
          <leafValues>
            -1.6248485445976257e-01 3.0363911390304565e-01</leafValues></_>
        <_>
          <internalNodes>
            0 -1 278 -1.1554416269063950e-03</internalNodes>
          <leafValues>
            -7.2385007143020630e-01 8.6294457316398621e-02</leafValues></_>
        <_>
          <internalNodes>
            0 -1 42 -1.6105212853290141e-04</internalNodes>
          <leafValues>
            -4.7783449292182922e-01 9.4566173851490021e-02</leafValues></_>
        <_>
          <internalNodes>
            0 -1 0 -2.0028774451930076e-04</internalNodes>
          <leafValues>
            2.9377892613410950e-01 -1.7804333567619324e-01</leafValues></_>
        <_>
          <internalNodes>
            0 -1 296 2.3162622004747391e-02</internalNodes>
          <leafValues>
            7.3495239019393921e-02 -7.1728205680847168e-01</leafValues></_>
        <_>
          <internalNodes>
            0 -1 283 -7.2275981074199080e-04</internalNodes>
          <leafValues>
            4.0170902013778687e-01 -1.4666354656219482e-01</leafValues></_>
        <_>
          <internalNodes>
            0 -1 269 -1.3935548253357410e-02</internalNodes>
          <leafValues>
            -6.8531799316406250e-01 8.3223991096019745e-02</leafValues></_>
        <_>
          <internalNodes>
            0 -1 165 8.8245622813701630e-02</internalNodes>
          <leafValues>
            -1.2398797273635864e-01 5.1650881767272949e-01</leafValues></_>
        <_>
          <internalNodes>
            0 -1 130 6.2939163763076067e-04</internalNodes>
          <leafValues>
            -1.2590897083282471e-01 4.2372220754623413e-01</leafValues></_>
        <_>
          <internalNodes>
            0 -1 119 -1.2770561501383781e-02</internalNodes>
          <leafValues>
            5.3894400596618652e-01 -1.1506766080856323e-01</leafValues></_>
        <_>
          <internalNodes>
            0 -1 169 -2.5827481294982135e-04</internalNodes>
          <leafValues>
            4.0092191100120544e-01 -1.3559661805629730e-01</leafValues></_>
        <_>
          <internalNodes>
            0 -1 417 7.9624948557466269e-04</internalNodes>
          <leafValues>
            8.5410296916961670e-02 -6.9008010625839233e-01</leafValues></_>
        <_>
          <internalNodes>
            0 -1 53 9.8565086722373962e-02</internalNodes>
          <leafValues>
            -9.1237828135490417e-02 7.2498327493667603e-01</leafValues></_>
        <_>
          <internalNodes>
            0 -1 342 -7.2446651756763458e-04</internalNodes>
          <leafValues>
            4.0534916520118713e-01 -1.1463780701160431e-01</leafValues></_>
        <_>
          <internalNodes>
            0 -1 354 6.5566389821469784e-04</internalNodes>
          <leafValues>
            -1.3371045887470245e-01 4.0403074026107788e-01</leafValues></_>
        <_>
          <internalNodes>
            0 -1 406 1.0119199752807617e-02</internalNodes>
          <leafValues>
            -1.1573043465614319e-01 4.7028297185897827e-01</leafValues></_>
        <_>
          <internalNodes>
            0 -1 400 -9.2205195687711239e-04</internalNodes>
          <leafValues>
            3.8243281841278076e-01 -1.6285258531570435e-01</leafValues></_>
        <_>
          <internalNodes>
            0 -1 229 -1.2806765735149384e-03</internalNodes>
          <leafValues>
            2.8765603899955750e-01 -1.9541837275028229e-01</leafValues></_>
        <_>
          <internalNodes>
            0 -1 194 1.7125264275819063e-03</internalNodes>
          <leafValues>
            8.5316196084022522e-02 -6.5345108509063721e-01</leafValues></_></weakClassifiers></_>
    <!-- stage 12 -->
    <_>
      <maxWeakCount>33</maxWeakCount>
      <stageThreshold>-9.7489976882934570e-01</stageThreshold>
      <weakClassifiers>
        <_>
          <internalNodes>
            0 -1 73 -4.4380709528923035e-02</internalNodes>
          <leafValues>
            1.8309858441352844e-01 -4.0324324369430542e-01</leafValues></_>
        <_>
          <internalNodes>
            0 -1 430 2.1883007138967514e-04</internalNodes>
          <leafValues>
            7.4772186577320099e-02 -5.2488195896148682e-01</leafValues></_>
        <_>
          <internalNodes>
            0 -1 203 -1.6350925434380770e-03</internalNodes>
          <leafValues>
            -5.2089750766754150e-01 8.1545330584049225e-02</leafValues></_>
        <_>
          <internalNodes>
            0 -1 381 -4.5190210221335292e-04</internalNodes>
          <leafValues>
            4.6434310078620911e-01 -9.5117032527923584e-02</leafValues></_>
        <_>
          <internalNodes>
            0 -1 157 -1.0336644481867552e-03</internalNodes>
          <leafValues>
            4.8200693726539612e-01 -7.4647910892963409e-02</leafValues></_>
        <_>
          <internalNodes>
            0 -1 57 1.7003359971567988e-03</internalNodes>
          <leafValues>
            5.1730562001466751e-02 -7.1787250041961670e-01</leafValues></_>
        <_>
          <internalNodes>
            0 -1 178 -2.8374930843710899e-03</internalNodes>
          <leafValues>
            6.2988150119781494e-01 -8.8453926146030426e-02</leafValues></_>
        <_>
          <internalNodes>
            0 -1 403 -2.3656366392970085e-03</internalNodes>
          <leafValues>
            -7.7010387182235718e-01 5.8112241327762604e-02</leafValues></_>
        <_>
          <internalNodes>
            0 -1 343 3.8734325207769871e-03</internalNodes>
          <leafValues>
            -9.4772242009639740e-02 4.9222120642662048e-01</leafValues></_>
        <_>
          <internalNodes>
            0 -1 273 -1.7930470407009125e-02</internalNodes>
          <leafValues>
            2.3257911205291748e-01 -2.0461039245128632e-01</leafValues></_>
        <_>
          <internalNodes>
            0 -1 216 2.0258005242794752e-03</internalNodes>
          <leafValues>
            -7.0551410317420959e-02 6.0513114929199219e-01</leafValues></_>
        <_>
          <internalNodes>
            0 -1 443 3.2109953463077545e-03</internalNodes>
          <leafValues>
            9.7780905663967133e-02 -4.8050659894943237e-01</leafValues></_>
        <_>
          <internalNodes>
            0 -1 387 4.7076516784727573e-03</internalNodes>
          <leafValues>
            -1.2899783253669739e-01 4.1197380423545837e-01</leafValues></_>
        <_>
          <internalNodes>
            0 -1 383 -7.4184378609061241e-03</internalNodes>
          <leafValues>
            3.6103159189224243e-01 -1.4268024265766144e-01</leafValues></_>
        <_>
          <internalNodes>
            0 -1 218 1.4367019757628441e-03</internalNodes>
          <leafValues>
            7.5400091707706451e-02 -6.5799057483673096e-01</leafValues></_>
        <_>
          <internalNodes>
            0 -1 424 -2.3578363470733166e-03</internalNodes>
          <leafValues>
            2.7888378500938416e-01 -2.0209555327892303e-01</leafValues></_>
        <_>
          <internalNodes>
            0 -1 446 -1.7964101862162352e-03</internalNodes>
          <leafValues>
            -8.2836955785751343e-01 5.3471494466066360e-02</leafValues></_>
        <_>
          <internalNodes>
            0 -1 422 1.6057938337326050e-03</internalNodes>
          <leafValues>
            6.8739995360374451e-02 -6.2560856342315674e-01</leafValues></_>
        <_>
          <internalNodes>
            0 -1 7 -1.4624858275055885e-02</internalNodes>
          <leafValues>
            -9.2530888319015503e-01 4.1536681354045868e-02</leafValues></_>
        <_>
          <internalNodes>
            0 -1 425 2.0665858755819499e-04</internalNodes>
          <leafValues>
            1.2194867432117462e-01 -3.7119287252426147e-01</leafValues></_>
        <_>
          <internalNodes>
            0 -1 252 2.6153697399422526e-04</internalNodes>
          <leafValues>
            -1.6101452708244324e-01 3.1250891089439392e-01</leafValues></_>
        <_>
          <internalNodes>
            0 -1 185 7.5790416449308395e-03</internalNodes>
          <leafValues>
            -7.2890162467956543e-02 7.4206030368804932e-01</leafValues></_>
        <_>
          <internalNodes>
            0 -1 338 -3.2076175557449460e-04</internalNodes>
          <leafValues>
            -5.2337473630905151e-01 1.0825248807668686e-01</leafValues></_>
        <_>
          <internalNodes>
            0 -1 238 -1.2406727764755487e-03</internalNodes>
          <leafValues>
            -5.3492820262908936e-01 9.3764849007129669e-02</leafValues></_>
        <_>
          <internalNodes>
            0 -1 174 1.6685833688825369e-03</internalNodes>
          <leafValues>
            -8.4322661161422729e-02 6.5264862775802612e-01</leafValues></_>
        <_>
          <internalNodes>
            0 -1 108 2.9517854563891888e-03</internalNodes>
          <leafValues>
            -1.3231854140758514e-01 3.5209500789642334e-01</leafValues></_>
        <_>
          <internalNodes>
            0 -1 376 9.0509776782710105e-05</internalNodes>
          <leafValues>
            -1.7244644463062286e-01 2.9281368851661682e-01</leafValues></_>
        <_>
          <internalNodes>
            0 -1 193 -2.6838982012122869e-03</internalNodes>
          <leafValues>
            -6.0873764753341675e-01 7.8420117497444153e-02</leafValues></_>
        <_>
          <internalNodes>
            0 -1 4 1.3614698546007276e-03</internalNodes>
          <leafValues>
            6.6763803362846375e-02 -6.4394152164459229e-01</leafValues></_>
        <_>
          <internalNodes>
            0 -1 37 9.5732696354389191e-04</internalNodes>
          <leafValues>
            -1.8600016832351685e-01 3.0184882879257202e-01</leafValues></_>
        <_>
          <internalNodes>
            0 -1 153 -1.3711048290133476e-02</internalNodes>
          <leafValues>
            3.4711840748786926e-01 -1.5114170312881470e-01</leafValues></_>
        <_>
          <internalNodes>
            0 -1 192 7.4063439387828112e-04</internalNodes>
          <leafValues>
            1.1211680620908737e-01 -4.7207689285278320e-01</leafValues></_>
        <_>
          <internalNodes>
            0 -1 299 2.9177344404160976e-03</internalNodes>
          <leafValues>
            -1.3114146888256073e-01 4.2989030480384827e-01</leafValues></_></weakClassifiers></_>
    <!-- stage 13 -->
    <_>
      <maxWeakCount>32</maxWeakCount>
      <stageThreshold>-1.0872921943664551e+00</stageThreshold>
      <weakClassifiers>
        <_>
          <internalNodes>
            0 -1 113 -5.8835232630372047e-03</internalNodes>
          <leafValues>
            1.5639810264110565e-01 -3.9590075612068176e-01</leafValues></_>
        <_>
          <internalNodes>
            0 -1 410 9.8018127027899027e-04</internalNodes>
          <leafValues>
            -1.4970257878303528e-01 3.6213320493698120e-01</leafValues></_>
        <_>
          <internalNodes>
            0 -1 361 -1.8472861265763640e-03</internalNodes>
          <leafValues>
            4.1990143060684204e-01 -1.1588229238986969e-01</leafValues></_>
        <_>
          <internalNodes>
            0 -1 390 -3.8279711734503508e-03</internalNodes>
          <leafValues>
            -6.9682997465133667e-01 6.9445371627807617e-02</leafValues></_>
        <_>
          <internalNodes>
            0 -1 282 -6.4253406599164009e-03</internalNodes>
          <leafValues>
            3.2443767786026001e-01 -1.4468120038509369e-01</leafValues></_>
        <_>
          <internalNodes>
            0 -1 92 4.2413454502820969e-03</internalNodes>
          <leafValues>
            -1.6343054175376892e-01 3.0467006564140320e-01</leafValues></_>
        <_>
          <internalNodes>
            0 -1 19 7.4705490842461586e-03</internalNodes>
          <leafValues>
            7.7899836003780365e-02 -8.0977058410644531e-01</leafValues></_>
        <_>
          <internalNodes>
            0 -1 76 6.1256061308085918e-03</internalNodes>
          <leafValues>
            -2.3371453583240509e-01 1.8680240213871002e-01</leafValues></_>
        <_>
          <internalNodes>
            0 -1 100 -5.1120914518833160e-02</internalNodes>
          <leafValues>
            -5.3199291229248047e-01 7.3736287653446198e-02</leafValues></_>
        <_>
          <internalNodes>
            0 -1 228 3.2884732354432344e-03</internalNodes>
          <leafValues>
            -1.1817416548728943e-01 3.7462413311004639e-01</leafValues></_>
        <_>
          <internalNodes>
            0 -1 150 -2.0000388030894101e-04</internalNodes>
          <leafValues>
            2.7357149124145508e-01 -1.6978278756141663e-01</leafValues></_>
        <_>
          <internalNodes>
            0 -1 103 4.2262062197551131e-04</internalNodes>
          <leafValues>
            1.0076992958784103e-01 -5.4126024246215820e-01</leafValues></_>
        <_>
          <internalNodes>
            0 -1 332 -5.8204017113894224e-04</internalNodes>
          <leafValues>
            4.1816991567611694e-01 -1.3342030346393585e-01</leafValues></_>
        <_>
          <internalNodes>
            0 -1 405 -1.2690098956227303e-03</internalNodes>
          <leafValues>
            -9.2753392457962036e-01 5.3983021527528763e-02</leafValues></_>
        <_>
          <internalNodes>
            0 -1 176 -2.3996808158699423e-04</internalNodes>
          <leafValues>
            4.1473791003227234e-01 -1.2439686805009842e-01</leafValues></_>
        <_>
          <internalNodes>
            0 -1 213 1.3254890218377113e-03</internalNodes>
          <leafValues>
            4.8411570489406586e-02 -8.3546233177185059e-01</leafValues></_>
        <_>
          <internalNodes>
            0 -1 208 -1.1509287357330322e-01</internalNodes>
          <leafValues>
            5.7009226083755493e-01 -8.8022686541080475e-02</leafValues></_>
        <_>
          <internalNodes>
            0 -1 212 5.8517515659332275e-02</internalNodes>
          <leafValues>
            -1.4673741161823273e-01 3.6882087588310242e-01</leafValues></_>
        <_>
          <internalNodes>
            0 -1 33 -1.2304462492465973e-02</internalNodes>
          <leafValues>
            -7.5887113809585571e-01 7.1776814758777618e-02</leafValues></_>
        <_>
          <internalNodes>
            0 -1 438 5.2910600788891315e-04</internalNodes>
          <leafValues>
            4.8721447587013245e-02 -8.2405996322631836e-01</leafValues></_>
        <_>
          <internalNodes>
            0 -1 172 -6.4515471458435059e-03</internalNodes>
          <leafValues>
            4.3050074577331543e-01 -1.3661378622055054e-01</leafValues></_>
        <_>
          <internalNodes>
            0 -1 305 -1.6676337691023946e-04</internalNodes>
          <leafValues>
            4.2674618959426880e-01 -1.0093133896589279e-01</leafValues></_>
        <_>
          <internalNodes>
            0 -1 339 -5.3963395766913891e-03</internalNodes>
          <leafValues>
            7.9848581552505493e-01 -6.1887215822935104e-02</leafValues></_>
        <_>
          <internalNodes>
            0 -1 156 2.2432810510508716e-04</internalNodes>
          <leafValues>
            -1.2271472811698914e-01 3.7535706162452698e-01</leafValues></_>
        <_>
          <internalNodes>
            0 -1 224 -6.2893901485949755e-04</internalNodes>
          <leafValues>
            2.2303342819213867e-01 -2.1543556451797485e-01</leafValues></_>
        <_>
          <internalNodes>
            0 -1 1 -4.4183791615068913e-03</internalNodes>
          <leafValues>
            -6.3452243804931641e-01 7.5506851077079773e-02</leafValues></_>
        <_>
          <internalNodes>
            0 -1 29 -2.1247863769531250e-03</internalNodes>
          <leafValues>
            -8.4873425960540771e-01 4.6584226191043854e-02</leafValues></_>
        <_>
          <internalNodes>
            0 -1 227 1.1749151162803173e-03</internalNodes>
          <leafValues>
            8.5224144160747528e-02 -5.2914869785308838e-01</leafValues></_>
        <_>
          <internalNodes>
            0 -1 369 1.2495121336542070e-04</internalNodes>
          <leafValues>
            -2.0527666807174683e-01 2.6486513018608093e-01</leafValues></_>
        <_>
          <internalNodes>
            0 -1 413 1.7388785636285320e-05</internalNodes>
          <leafValues>
            -2.3348014056682587e-01 2.2471816837787628e-01</leafValues></_>
        <_>
          <internalNodes>
            0 -1 398 2.8631684836000204e-03</internalNodes>
          <leafValues>
            -9.9589563906192780e-02 5.1032334566116333e-01</leafValues></_>
        <_>
          <internalNodes>
            0 -1 102 -2.8148712590336800e-03</internalNodes>
          <leafValues>
            -9.5127737522125244e-01 6.2760293483734131e-02</leafValues></_></weakClassifiers></_>
    <!-- stage 14 -->
    <_>
      <maxWeakCount>35</maxWeakCount>
      <stageThreshold>-1.1302750110626221e+00</stageThreshold>
      <weakClassifiers>
        <_>
          <internalNodes>
            0 -1 349 -5.4817162454128265e-03</internalNodes>
          <leafValues>
            -7.5949365273118019e-03 -4.4549125432968140e-01</leafValues></_>
        <_>
          <internalNodes>
            0 -1 86 2.2536583128385246e-04</internalNodes>
          <leafValues>
            -1.3112831115722656e-01 3.9593583345413208e-01</leafValues></_>
        <_>
          <internalNodes>
            0 -1 198 2.7890922501683235e-03</internalNodes>
          <leafValues>
            -1.3320724666118622e-01 3.2827371358871460e-01</leafValues></_>
        <_>
          <internalNodes>
            0 -1 147 3.8501527160406113e-04</internalNodes>
          <leafValues>
            -1.6294737160205841e-01 2.7280578017234802e-01</leafValues></_>
        <_>
          <internalNodes>
            0 -1 289 7.7333475928753614e-04</internalNodes>
          <leafValues>
            -1.4179265499114990e-01 2.9203665256500244e-01</leafValues></_>
        <_>
          <internalNodes>
            0 -1 17 -1.6468770802021027e-02</internalNodes>
          <leafValues>
            -8.6184126138687134e-01 5.7672873139381409e-02</leafValues></_>
        <_>
          <internalNodes>
            0 -1 85 1.0741314326878637e-04</internalNodes>
          <leafValues>
            -1.5513414144515991e-01 2.7443349361419678e-01</leafValues></_>
        <_>
          <internalNodes>
            0 -1 258 -2.0081731490790844e-03</internalNodes>
          <leafValues>
            -7.0777988433837891e-01 6.2127996236085892e-02</leafValues></_>
        <_>
          <internalNodes>
            0 -1 373 1.0146109852939844e-03</internalNodes>
          <leafValues>
            -1.7590044438838959e-01 2.4877300858497620e-01</leafValues></_>
        <_>
          <internalNodes>
            0 -1 294 -4.0879165753722191e-03</internalNodes>
          <leafValues>
            5.0267797708511353e-01 -7.5714521110057831e-02</leafValues></_>
        <_>
          <internalNodes>
            0 -1 36 4.0959723992273211e-04</internalNodes>
          <leafValues>
            5.5923327803611755e-02 -8.0248796939849854e-01</leafValues></_>
        <_>
          <internalNodes>
            0 -1 143 2.7718806266784668e-01</internalNodes>
          <leafValues>
            -7.3863580822944641e-02 6.6529005765914917e-01</leafValues></_>
        <_>
          <internalNodes>
            0 -1 365 -6.0426224954426289e-03</internalNodes>
          <leafValues>
            4.5991045236587524e-01 -9.3861825764179230e-02</leafValues></_>
        <_>
          <internalNodes>
            0 -1 65 2.3926715366542339e-03</internalNodes>
          <leafValues>
            -1.1275337636470795e-01 4.3219393491744995e-01</leafValues></_>
        <_>
          <internalNodes>
            0 -1 210 -4.8167537897825241e-03</internalNodes>
          <leafValues>
            -6.5748709440231323e-01 6.7972257733345032e-02</leafValues></_>
        <_>
          <internalNodes>
            0 -1 271 2.1454074885696173e-03</internalNodes>
          <leafValues>
            -1.2083547562360764e-01 3.9169356226921082e-01</leafValues></_>
        <_>
          <internalNodes>
            0 -1 401 -9.5896580023691058e-04</internalNodes>
          <leafValues>
            3.2491374015808105e-01 -1.3417421281337738e-01</leafValues></_>
        <_>
          <internalNodes>
            0 -1 355 -5.1605922635644674e-04</internalNodes>
          <leafValues>
            -7.5974279642105103e-01 4.9182504415512085e-02</leafValues></_>
        <_>
          <internalNodes>
            0 -1 352 4.6060164459049702e-04</internalNodes>
          <leafValues>
            -1.4282190799713135e-01 3.2715186476707458e-01</leafValues></_>
        <_>
          <internalNodes>
            0 -1 304 -3.8418051553890109e-04</internalNodes>
          <leafValues>
            2.8632366657257080e-01 -1.6963520646095276e-01</leafValues></_>
        <_>
          <internalNodes>
            0 -1 51 -4.0352158248424530e-03</internalNodes>
          <leafValues>
            3.4898644685745239e-01 -1.3657887279987335e-01</leafValues></_>
        <_>
          <internalNodes>
            0 -1 189 -8.3330104826018214e-04</internalNodes>
          <leafValues>
            -4.9278217554092407e-01 1.0243276506662369e-01</leafValues></_>
        <_>
          <internalNodes>
            0 -1 280 9.4155408442020416e-03</internalNodes>
          <leafValues>
            6.8210780620574951e-02 -7.1022117137908936e-01</leafValues></_>
        <_>
          <internalNodes>
            0 -1 309 -2.6851583970710635e-04</internalNodes>
          <leafValues>
            3.9423632621765137e-01 -1.2801614403724670e-01</leafValues></_>
        <_>
          <internalNodes>
            0 -1 251 -4.2220749310217798e-04</internalNodes>
          <leafValues>
            2.5833883881568909e-01 -1.8752971291542053e-01</leafValues></_>
        <_>
          <internalNodes>
            0 -1 44 -4.4776378199458122e-03</internalNodes>
          <leafValues>
            2.6850867271423340e-01 -1.7051430046558380e-01</leafValues></_>
        <_>
          <internalNodes>
            0 -1 47 -1.1229191441088915e-03</internalNodes>
          <leafValues>
            2.4272453784942627e-01 -1.9700086116790771e-01</leafValues></_>
        <_>
          <internalNodes>
            0 -1 207 6.1562596820294857e-03</internalNodes>
          <leafValues>
            9.3718737363815308e-02 -5.5367875099182129e-01</leafValues></_>
        <_>
          <internalNodes>
            0 -1 322 -4.2322222143411636e-03</internalNodes>
          <leafValues>
            5.0403708219528198e-01 -1.1049239337444305e-01</leafValues></_>
        <_>
          <internalNodes>
            0 -1 161 1.5328213339671493e-04</internalNodes>
          <leafValues>
            -1.1045295000076294e-01 3.9694923162460327e-01</leafValues></_>
        <_>
          <internalNodes>
            0 -1 173 8.4983684122562408e-02</internalNodes>
          <leafValues>
            -1.0356186330318451e-01 4.7762101888656616e-01</leafValues></_>
        <_>
          <internalNodes>
            0 -1 197 1.5899243298918009e-03</internalNodes>
          <leafValues>
            1.0074198246002197e-01 -5.5058830976486206e-01</leafValues></_>
        <_>
          <internalNodes>
            0 -1 11 1.4166390523314476e-02</internalNodes>
          <leafValues>
            -7.6018996536731720e-02 6.8832290172576904e-01</leafValues></_>
        <_>
          <internalNodes>
            0 -1 217 6.9791567511856556e-03</internalNodes>
          <leafValues>
            6.8185575306415558e-02 -8.3885270357131958e-01</leafValues></_>
        <_>
          <internalNodes>
            0 -1 66 -2.3540770052932203e-04</internalNodes>
          <leafValues>
            3.4070354700088501e-01 -1.5269160270690918e-01</leafValues></_></weakClassifiers></_>
    <!-- stage 15 -->
    <_>
      <maxWeakCount>31</maxWeakCount>
      <stageThreshold>-9.5408284664154053e-01</stageThreshold>
      <weakClassifiers>
        <_>
          <internalNodes>
            0 -1 306 6.9161871215328574e-04</internalNodes>
          <leafValues>
            -4.5070421695709229e-01 -3.2710280269384384e-02</leafValues></_>
        <_>
          <internalNodes>
            0 -1 110 4.6448439359664917e-02</internalNodes>
          <leafValues>
            -1.4742279052734375e-01 3.0389052629470825e-01</leafValues></_>
        <_>
          <internalNodes>
            0 -1 399 -2.0914673223160207e-04</internalNodes>
          <leafValues>
            3.5146096348762512e-01 -1.1719245463609695e-01</leafValues></_>
        <_>
          <internalNodes>
            0 -1 20 -2.2041505202651024e-02</internalNodes>
          <leafValues>
            -7.7805912494659424e-01 5.2894316613674164e-02</leafValues></_>
        <_>
          <internalNodes>
            0 -1 431 6.3260534079745412e-04</internalNodes>
          <leafValues>
            -1.3649590313434601e-01 3.1732559204101562e-01</leafValues></_>
        <_>
          <internalNodes>
            0 -1 436 -7.5378455221652985e-05</internalNodes>
          <leafValues>
            -3.1353524327278137e-01 1.3663424551486969e-01</leafValues></_>
        <_>
          <internalNodes>
            0 -1 163 1.8884739256463945e-04</internalNodes>
          <leafValues>
            -1.2042089551687241e-01 3.1463834643363953e-01</leafValues></_>
        <_>
          <internalNodes>
            0 -1 380 -1.0441327467560768e-03</internalNodes>
          <leafValues>
            -8.0359017848968506e-01 3.0670480802655220e-02</leafValues></_>
        <_>
          <internalNodes>
            0 -1 225 1.3455143198370934e-04</internalNodes>
          <leafValues>
            -1.5150856971740723e-01 2.9234480857849121e-01</leafValues></_>
        <_>
          <internalNodes>
            0 -1 140 1.7005988629534841e-03</internalNodes>
          <leafValues>
            -7.4841491878032684e-02 5.3478109836578369e-01</leafValues></_>
        <_>
          <internalNodes>
            0 -1 39 7.8095528297126293e-03</internalNodes>
          <leafValues>
            6.9074995815753937e-02 -6.3918215036392212e-01</leafValues></_>
        <_>
          <internalNodes>
            0 -1 55 1.5307695139199495e-03</internalNodes>
          <leafValues>
            -1.5742400288581848e-01 3.1392678618431091e-01</leafValues></_>
        <_>
          <internalNodes>
            0 -1 27 5.0998688675463200e-03</internalNodes>
          <leafValues>
            8.0700948834419250e-02 -4.8770344257354736e-01</leafValues></_>
        <_>
          <internalNodes>
            0 -1 257 1.9943516235798597e-04</internalNodes>
          <leafValues>
            -1.6630399227142334e-01 2.4803771078586578e-01</leafValues></_>
        <_>
          <internalNodes>
            0 -1 377 4.7837651800364256e-04</internalNodes>
          <leafValues>
            -1.4976884424686432e-01 2.7528685331344604e-01</leafValues></_>
        <_>
          <internalNodes>
            0 -1 445 3.9720875793136656e-04</internalNodes>
          <leafValues>
            7.0213370025157928e-02 -6.8700897693634033e-01</leafValues></_>
        <_>
          <internalNodes>
            0 -1 329 -3.1916983425617218e-03</internalNodes>
          <leafValues>
            4.8947948217391968e-01 -1.0590425133705139e-01</leafValues></_>
        <_>
          <internalNodes>
            0 -1 14 -1.2874472886323929e-03</internalNodes>
          <leafValues>
            2.8736931085586548e-01 -1.5888158977031708e-01</leafValues></_>
        <_>
          <internalNodes>
            0 -1 223 3.4073209390044212e-03</internalNodes>
          <leafValues>
            1.0411208868026733e-01 -4.4320112466812134e-01</leafValues></_>
        <_>
          <internalNodes>
            0 -1 88 1.3395762653090060e-04</internalNodes>
          <leafValues>
            -1.4589321613311768e-01 3.2764792442321777e-01</leafValues></_>
        <_>
          <internalNodes>
            0 -1 395 -1.7131968634203076e-03</internalNodes>
          <leafValues>
            -7.8940969705581665e-01 6.1671875417232513e-02</leafValues></_>
        <_>
          <internalNodes>
            0 -1 363 -6.8469177931547165e-03</internalNodes>
          <leafValues>
            2.8330013155937195e-01 -1.6159801185131073e-01</leafValues></_>
        <_>
          <internalNodes>
            0 -1 6 -4.1770411189645529e-04</internalNodes>
          <leafValues>
            -7.1293866634368896e-01 7.0151582360267639e-02</leafValues></_>
        <_>
          <internalNodes>
            0 -1 382 -1.2580439448356628e-02</internalNodes>
          <leafValues>
            3.8225445151329041e-01 -1.3254772126674652e-01</leafValues></_>
        <_>
          <internalNodes>
            0 -1 75 -2.1680062636733055e-03</internalNodes>
          <leafValues>
            -8.9087504148483276e-01 6.5621025860309601e-02</leafValues></_>
        <_>
          <internalNodes>
            0 -1 77 -1.5502314781770110e-03</internalNodes>
          <leafValues>
            5.4028028249740601e-01 -1.1074141412973404e-01</leafValues></_>
        <_>
          <internalNodes>
            0 -1 90 -1.4106510207056999e-02</internalNodes>
          <leafValues>
            8.6666446924209595e-01 -4.6257246285676956e-02</leafValues></_>
        <_>
          <internalNodes>
            0 -1 87 1.0345454211346805e-04</internalNodes>
          <leafValues>
            -1.5241608023643494e-01 3.0569919943809509e-01</leafValues></_>
        <_>
          <internalNodes>
            0 -1 440 7.2431197622790933e-05</internalNodes>
          <leafValues>
            1.1135622113943100e-01 -4.2963990569114685e-01</leafValues></_>
        <_>
          <internalNodes>
            0 -1 308 7.0429407060146332e-05</internalNodes>
          <leafValues>
            -1.8075276911258698e-01 2.5793492794036865e-01</leafValues></_>
        <_>
          <internalNodes>
            0 -1 291 8.2345996052026749e-03</internalNodes>
          <leafValues>
            -1.4950373768806458e-01 3.0524650216102600e-01</leafValues></_></weakClassifiers></_>
    <!-- stage 16 -->
    <_>
      <maxWeakCount>35</maxWeakCount>
      <stageThreshold>-9.8105221986770630e-01</stageThreshold>
      <weakClassifiers>
        <_>
          <internalNodes>
            0 -1 3 2.1777108311653137e-02</internalNodes>
          <leafValues>
            -4.4533333182334900e-01 2.0987694685922123e-17</leafValues></_>
        <_>
          <internalNodes>
            0 -1 429 6.6364125814288855e-05</internalNodes>
          <leafValues>
            1.1481706053018570e-01 -3.6246615648269653e-01</leafValues></_>
        <_>
          <internalNodes>
            0 -1 402 -4.7188880853354931e-04</internalNodes>
          <leafValues>
            3.6509460210800171e-01 -1.1811618506908417e-01</leafValues></_>
        <_>
          <internalNodes>
            0 -1 379 -3.9816037751734257e-03</internalNodes>
          <leafValues>
            -8.4757292270660400e-01 5.5157855153083801e-02</leafValues></_>
        <_>
          <internalNodes>
            0 -1 371 7.8765500802546740e-04</internalNodes>
          <leafValues>
            -1.3681794703006744e-01 3.2523134350776672e-01</leafValues></_>
        <_>
          <internalNodes>
            0 -1 134 -1.7766482196748257e-03</internalNodes>
          <leafValues>
            -9.4881957769393921e-01 8.9479558169841766e-02</leafValues></_>
        <_>
          <internalNodes>
            0 -1 420 -5.9469841653481126e-04</internalNodes>
          <leafValues>
            4.3305167555809021e-01 -1.3711065053939819e-01</leafValues></_>
        <_>
          <internalNodes>
            0 -1 394 5.3374690469354391e-04</internalNodes>
          <leafValues>
            9.4501391053199768e-02 -5.1788514852523804e-01</leafValues></_>
        <_>
          <internalNodes>
            0 -1 415 -4.2918347753584385e-04</internalNodes>
          <leafValues>
            3.9541363716125488e-01 -9.9777057766914368e-02</leafValues></_>
        <_>
          <internalNodes>
            0 -1 30 1.0939899366348982e-03</internalNodes>
          <leafValues>
            6.8337075412273407e-02 -6.4860731363296509e-01</leafValues></_>
        <_>
          <internalNodes>
            0 -1 312 2.1207162353675812e-04</internalNodes>
          <leafValues>
            -1.3038808107376099e-01 3.7022104859352112e-01</leafValues></_>
        <_>
          <internalNodes>
            0 -1 290 9.1893848730251193e-04</internalNodes>
          <leafValues>
            7.3611415922641754e-02 -6.0117298364639282e-01</leafValues></_>
        <_>
          <internalNodes>
            0 -1 101 -8.0083103966899216e-05</internalNodes>
          <leafValues>
            2.8341642022132874e-01 -1.5434619784355164e-01</leafValues></_>
        <_>
          <internalNodes>
            0 -1 435 1.2738638906739652e-04</internalNodes>
          <leafValues>
            1.6232812404632568e-01 -3.1749221682548523e-01</leafValues></_>
        <_>
          <internalNodes>
            0 -1 13 -3.6590416129911318e-05</internalNodes>
          <leafValues>
            -2.3617288470268250e-01 1.9987304508686066e-01</leafValues></_>
        <_>
          <internalNodes>
            0 -1 346 2.8293015202507377e-04</internalNodes>
          <leafValues>
            -1.0172647237777710e-01 4.2762100696563721e-01</leafValues></_>
        <_>
          <internalNodes>
            0 -1 372 5.9004279319196939e-04</internalNodes>
          <leafValues>
            -1.6996382176876068e-01 2.6083949208259583e-01</leafValues></_>
        <_>
          <internalNodes>
            0 -1 82 -1.7725502839311957e-03</internalNodes>
          <leafValues>
            1.7727680504322052e-01 -2.5744274258613586e-01</leafValues></_>
        <_>
          <internalNodes>
            0 -1 125 1.2902827002108097e-03</internalNodes>
          <leafValues>
            -1.8731878697872162e-01 2.9648554325103760e-01</leafValues></_>
        <_>
          <internalNodes>
            0 -1 116 2.0137734827585518e-04</internalNodes>
          <leafValues>
            -1.8495607376098633e-01 2.6964452862739563e-01</leafValues></_>
        <_>
          <internalNodes>
            0 -1 137 1.2663465738296509e-01</internalNodes>
          <leafValues>
            -8.7842553853988647e-02 5.6743687391281128e-01</leafValues></_>
        <_>
          <internalNodes>
            0 -1 142 4.1742442408576608e-04</internalNodes>
          <leafValues>
            -9.4129927456378937e-02 4.6409240365028381e-01</leafValues></_>
        <_>
          <internalNodes>
            0 -1 99 1.1914320930372924e-04</internalNodes>
          <leafValues>
            -2.3827770352363586e-01 2.0438486337661743e-01</leafValues></_>
        <_>
          <internalNodes>
            0 -1 432 -3.6825214920099825e-05</internalNodes>
          <leafValues>
            -2.8341814875602722e-01 1.6140605509281158e-01</leafValues></_>
        <_>
          <internalNodes>
            0 -1 284 6.8936997558921576e-04</internalNodes>
          <leafValues>
            -1.4516103267669678e-01 3.4919351339340210e-01</leafValues></_>
        <_>
          <internalNodes>
            0 -1 404 -6.0932906344532967e-03</internalNodes>
          <leafValues>
            -9.3420970439910889e-01 5.1313340663909912e-02</leafValues></_>
        <_>
          <internalNodes>
            0 -1 16 -3.7860176526010036e-03</internalNodes>
          <leafValues>
            -8.1963473558425903e-01 3.3508330583572388e-02</leafValues></_>
        <_>
          <internalNodes>
            0 -1 230 4.2878990643657744e-04</internalNodes>
          <leafValues>
            9.3446321785449982e-02 -4.3209651112556458e-01</leafValues></_>
        <_>
          <internalNodes>
            0 -1 337 -1.8475926481187344e-03</internalNodes>
          <leafValues>
            2.3543879389762878e-01 -1.9861704111099243e-01</leafValues></_>
        <_>
          <internalNodes>
            0 -1 220 -3.7736113881692290e-04</internalNodes>
          <leafValues>
            3.2880532741546631e-01 -1.4230570197105408e-01</leafValues></_>
        <_>
          <internalNodes>
            0 -1 256 6.0383733361959457e-03</internalNodes>
          <leafValues>
            8.6667798459529877e-02 -5.9985494613647461e-01</leafValues></_>
        <_>
          <internalNodes>
            0 -1 255 5.0172684714198112e-03</internalNodes>
          <leafValues>
            -1.3383486866950989e-01 3.7279334664344788e-01</leafValues></_>
        <_>
          <internalNodes>
            0 -1 411 -5.6518660858273506e-03</internalNodes>
          <leafValues>
            -7.8463894128799438e-01 6.2428984791040421e-02</leafValues></_>
        <_>
          <internalNodes>
            0 -1 40 5.5201277136802673e-03</internalNodes>
          <leafValues>
            3.6896016448736191e-02 -9.7671830654144287e-01</leafValues></_>
        <_>
          <internalNodes>
            0 -1 60 -8.8013373315334320e-03</internalNodes>
          <leafValues>
            6.8857842683792114e-01 -8.0457210540771484e-02</leafValues></_></weakClassifiers></_>
    <!-- stage 17 -->
    <_>
      <maxWeakCount>34</maxWeakCount>
      <stageThreshold>-1.0868353843688965e+00</stageThreshold>
      <weakClassifiers>
        <_>
          <internalNodes>
            0 -1 264 -4.3090455234050751e-02</internalNodes>
          <leafValues>
            -7.1428574621677399e-02 -4.7003155946731567e-01</leafValues></_>
        <_>
          <internalNodes>
            0 -1 62 -8.4562652045860887e-04</internalNodes>
          <leafValues>
            -6.5216344594955444e-01 4.3238177895545959e-02</leafValues></_>
        <_>
          <internalNodes>
            0 -1 61 -2.1279262728057802e-04</internalNodes>
          <leafValues>
            4.6217104792594910e-01 -7.7015019953250885e-02</leafValues></_>
        <_>
          <internalNodes>
            0 -1 407 -2.8377515263855457e-04</internalNodes>
          <leafValues>
            4.1744193434715271e-01 -1.1119529604911804e-01</leafValues></_>
        <_>
          <internalNodes>
            0 -1 68 4.6790196211077273e-04</internalNodes>
          <leafValues>
            -1.1050878465175629e-01 3.8280537724494934e-01</leafValues></_>
        <_>
          <internalNodes>
            0 -1 134 2.0082201808691025e-03</internalNodes>
          <leafValues>
            4.3254327028989792e-02 -9.6285504102706909e-01</leafValues></_>
        <_>
          <internalNodes>
            0 -1 52 3.3996556885540485e-04</internalNodes>
          <leafValues>
            -1.5808835625648499e-01 2.5941714644432068e-01</leafValues></_>
        <_>
          <internalNodes>
            0 -1 416 -1.4146121975500137e-04</internalNodes>
          <leafValues>
            3.3734592795372009e-01 -1.2058642506599426e-01</leafValues></_>
        <_>
          <internalNodes>
            0 -1 232 -4.5374646782875061e-02</internalNodes>
          <leafValues>
            3.5636585950851440e-01 -1.2011926621198654e-01</leafValues></_>
        <_>
          <internalNodes>
            0 -1 263 1.9849776290357113e-03</internalNodes>
          <leafValues>
            6.0638774186372757e-02 -6.5579724311828613e-01</leafValues></_>
        <_>
          <internalNodes>
            0 -1 139 4.8833910841494799e-04</internalNodes>
          <leafValues>
            -1.4587570726871490e-01 3.0213817954063416e-01</leafValues></_>
        <_>
          <internalNodes>
            0 -1 318 -1.2803279969375581e-04</internalNodes>
          <leafValues>
            2.5263571739196777e-01 -1.7634585499763489e-01</leafValues></_>
        <_>
          <internalNodes>
            0 -1 200 -1.1240345338592306e-04</internalNodes>
          <leafValues>
            3.7520810961723328e-01 -9.9157899618148804e-02</leafValues></_>
        <_>
          <internalNodes>
            0 -1 151 8.7588164024055004e-04</internalNodes>
          <leafValues>
            -1.1475830525159836e-01 3.9706879854202271e-01</leafValues></_>
        <_>
          <internalNodes>
            0 -1 439 9.4268267275765538e-04</internalNodes>
          <leafValues>
            4.9954310059547424e-02 -7.5908124446868896e-01</leafValues></_>
        <_>
          <internalNodes>
            0 -1 288 -8.5966423153877258e-02</internalNodes>
          <leafValues>
            -8.3419573307037354e-01 4.9325667321681976e-02</leafValues></_>
        <_>
          <internalNodes>
            0 -1 368 -1.3351363595575094e-03</internalNodes>
          <leafValues>
            2.7137839794158936e-01 -1.6247701644897461e-01</leafValues></_>
        <_>
          <internalNodes>
            0 -1 28 -7.1429669857025146e-02</internalNodes>
          <leafValues>
            -7.6866757869720459e-01 5.4432738572359085e-02</leafValues></_>
        <_>
          <internalNodes>
            0 -1 31 -1.2954289559274912e-03</internalNodes>
          <leafValues>
            -7.4956864118576050e-01 5.9526517987251282e-02</leafValues></_>
        <_>
          <internalNodes>
            0 -1 261 -2.5654297787696123e-03</internalNodes>
          <leafValues>
            -6.9791185855865479e-01 4.9233444035053253e-02</leafValues></_>
        <_>
          <internalNodes>
            0 -1 347 -5.7370411232113838e-03</internalNodes>
          <leafValues>
            -7.9890114068984985e-01 4.2963713407516479e-02</leafValues></_>
        <_>
          <internalNodes>
            0 -1 319 3.2456163316965103e-03</internalNodes>
          <leafValues>
            -1.6009885072708130e-01 3.0608978867530823e-01</leafValues></_>
        <_>
          <internalNodes>
            0 -1 25 -1.4177179895341396e-02</internalNodes>
          <leafValues>
            5.3124094009399414e-01 -8.9194200932979584e-02</leafValues></_>
        <_>
          <internalNodes>
            0 -1 38 1.1562253348529339e-04</internalNodes>
          <leafValues>
            -2.1028740704059601e-01 2.6265263557434082e-01</leafValues></_>
        <_>
          <internalNodes>
            0 -1 149 3.1679740641266108e-04</internalNodes>
          <leafValues>
            -1.5019300580024719e-01 3.0904906988143921e-01</leafValues></_>
        <_>
          <internalNodes>
            0 -1 22 -2.4625973310321569e-04</internalNodes>
          <leafValues>
            3.2528319954872131e-01 -1.4298805594444275e-01</leafValues></_>
        <_>
          <internalNodes>
            0 -1 63 8.6455702781677246e-02</internalNodes>
          <leafValues>
            -1.1050008982419968e-01 4.5133373141288757e-01</leafValues></_>
        <_>
          <internalNodes>
            0 -1 327 -1.2217473704367876e-04</internalNodes>
          <leafValues>
            3.2261645793914795e-01 -1.4861042797565460e-01</leafValues></_>
        <_>
          <internalNodes>
            0 -1 34 7.6779965311288834e-03</internalNodes>
          <leafValues>
            8.7674148380756378e-02 -5.5818623304367065e-01</leafValues></_>
        <_>
          <internalNodes>
            0 -1 441 4.4012955186190084e-05</internalNodes>
          <leafValues>
            1.3390824198722839e-01 -3.4728911519050598e-01</leafValues></_>
        <_>
          <internalNodes>
            0 -1 444 4.2937527177855372e-04</internalNodes>
          <leafValues>
            6.0346987098455429e-02 -7.3013770580291748e-01</leafValues></_>
        <_>
          <internalNodes>
            0 -1 237 9.6011476125568151e-04</internalNodes>
          <leafValues>
            -1.4867788553237915e-01 3.4204447269439697e-01</leafValues></_>
        <_>
          <internalNodes>
            0 -1 201 1.8557368312031031e-03</internalNodes>
          <leafValues>
            9.6587128937244415e-02 -5.1492053270339966e-01</leafValues></_>
        <_>
          <internalNodes>
            0 -1 310 3.2452348386868834e-04</internalNodes>
          <leafValues>
            -1.4939220249652863e-01 3.6505389213562012e-01</leafValues></_></weakClassifiers></_></stages>
  <features>
    <_>
      <rects>
        <_>
          0 0 6 2 -1.</_>
        <_>
          0 0 3 1 2.</_>
        <_>
          3 1 3 1 2.</_></rects>
      <tilted>0</tilted></_>
    <_>
      <rects>
        <_>
          0 0 9 2 -1.</_>
        <_>
          3 0 3 2 3.</_></rects>
      <tilted>0</tilted></_>
    <_>
      <rects>
        <_>
          0 0 17 12 -1.</_>
        <_>
          0 4 17 4 3.</_></rects>
      <tilted>0</tilted></_>
    <_>
      <rects>
        <_>
          0 0 34 8 -1.</_>
        <_>
          0 0 17 4 2.</_>
        <_>
          17 4 17 4 2.</_></rects>
      <tilted>0</tilted></_>
    <_>
      <rects>
        <_>
          0 1 1 6 -1.</_>
        <_>
          0 4 1 3 2.</_></rects>
      <tilted>0</tilted></_>
    <_>
      <rects>
        <_>
          0 1 27 15 -1.</_>
        <_>
          9 1 9 15 3.</_></rects>
      <tilted>0</tilted></_>
    <_>
      <rects>
        <_>
          0 2 1 2 -1.</_>
        <_>
          0 3 1 1 2.</_></rects>
      <tilted>0</tilted></_>
    <_>
      <rects>
        <_>
          0 6 2 14 -1.</_>
        <_>
          0 13 2 7 2.</_></rects>
      <tilted>0</tilted></_>
    <_>
      <rects>
        <_>
          0 7 10 5 -1.</_>
        <_>
          5 7 5 5 2.</_></rects>
      <tilted>0</tilted></_>
    <_>
      <rects>
        <_>
          0 8 24 2 -1.</_>
        <_>
          8 8 8 2 3.</_></rects>
      <tilted>0</tilted></_>
    <_>
      <rects>
        <_>
          0 9 3 6 -1.</_>
        <_>
          0 11 3 2 3.</_></rects>
      <tilted>0</tilted></_>
    <_>
      <rects>
        <_>
          0 9 8 8 -1.</_>
        <_>
          0 9 4 4 2.</_>
        <_>
          4 13 4 4 2.</_></rects>
      <tilted>0</tilted></_>
    <_>
      <rects>
        <_>
          0 9 5 10 -1.</_>
        <_>
          0 14 5 5 2.</_></rects>
      <tilted>0</tilted></_>
    <_>
      <rects>
        <_>
          0 10 4 5 -1.</_>
        <_>
          2 10 2 5 2.</_></rects>
      <tilted>0</tilted></_>
    <_>
      <rects>
        <_>
          0 11 9 3 -1.</_>
        <_>
          3 11 3 3 3.</_></rects>
      <tilted>0</tilted></_>
    <_>
      <rects>
        <_>
          0 12 6 3 -1.</_>
        <_>
          0 13 6 1 3.</_></rects>
      <tilted>0</tilted></_>
    <_>
      <rects>
        <_>
          0 13 2 6 -1.</_>
        <_>
          0 15 2 2 3.</_></rects>
      <tilted>0</tilted></_>
    <_>
      <rects>
        <_>
          0 13 9 7 -1.</_>
        <_>
          3 13 3 7 3.</_></rects>
      <tilted>0</tilted></_>
    <_>
      <rects>
        <_>
          0 14 1 6 -1.</_>
        <_>
          0 16 1 2 3.</_></rects>
      <tilted>0</tilted></_>
    <_>
      <rects>
        <_>
          0 14 3 6 -1.</_>
        <_>
          0 17 3 3 2.</_></rects>
      <tilted>0</tilted></_>
    <_>
      <rects>
        <_>
          1 0 33 1 -1.</_>
        <_>
          12 0 11 1 3.</_></rects>
      <tilted>0</tilted></_>
    <_>
      <rects>
        <_>
          1 1 38 8 -1.</_>
        <_>
          20 1 19 8 2.</_></rects>
      <tilted>0</tilted></_>
    <_>
      <rects>
        <_>
          1 5 3 2 -1.</_>
        <_>
          1 6 3 1 2.</_></rects>
      <tilted>0</tilted></_>
    <_>
      <rects>
        <_>
          1 5 19 6 -1.</_>
        <_>
          1 7 19 2 3.</_></rects>
      <tilted>0</tilted></_>
    <_>
      <rects>
        <_>
          1 7 12 6 -1.</_>
        <_>
          1 7 6 3 2.</_>
        <_>
          7 10 6 3 2.</_></rects>
      <tilted>0</tilted></_>
    <_>
      <rects>
        <_>
          1 8 6 7 -1.</_>
        <_>
          4 8 3 7 2.</_></rects>
      <tilted>0</tilted></_>
    <_>
      <rects>
        <_>
          1 10 12 6 -1.</_>
        <_>
          1 10 6 3 2.</_>
        <_>
          7 13 6 3 2.</_></rects>
      <tilted>0</tilted></_>
    <_>
      <rects>
        <_>
          1 10 55 3 -1.</_>
        <_>
          1 11 55 1 3.</_></rects>
      <tilted>0</tilted></_>
    <_>
      <rects>
        <_>
          1 11 56 8 -1.</_>
        <_>
          1 11 28 4 2.</_>
        <_>
          29 15 28 4 2.</_></rects>
      <tilted>0</tilted></_>
    <_>
      <rects>
        <_>
          1 12 6 3 -1.</_>
        <_>
          1 13 6 1 3.</_></rects>
      <tilted>0</tilted></_>
    <_>
      <rects>
        <_>
          1 15 3 5 -1.</_>
        <_>
          2 15 1 5 3.</_></rects>
      <tilted>0</tilted></_>
    <_>
      <rects>
        <_>
          1 16 3 4 -1.</_>
        <_>
          2 16 1 4 3.</_></rects>
      <tilted>0</tilted></_>
    <_>
      <rects>
        <_>
          2 0 9 3 -1.</_>
        <_>
          5 0 3 3 3.</_></rects>
      <tilted>0</tilted></_>
    <_>
      <rects>
        <_>
          2 0 15 2 -1.</_>
        <_>
          7 0 5 2 3.</_></rects>
      <tilted>0</tilted></_>
    <_>
      <rects>
        <_>
          2 0 24 1 -1.</_>
        <_>
          10 0 8 1 3.</_></rects>
      <tilted>0</tilted></_>
    <_>
      <rects>
        <_>
          2 0 16 9 -1.</_>
        <_>
          2 3 16 3 3.</_></rects>
      <tilted>0</tilted></_>
    <_>
      <rects>
        <_>
          2 1 2 1 -1.</_>
        <_>
          3 1 1 1 2.</_></rects>
      <tilted>0</tilted></_>
    <_>
      <rects>
        <_>
          2 2 5 6 -1.</_>
        <_>
          2 5 5 3 2.</_></rects>
      <tilted>0</tilted></_>
    <_>
      <rects>
        <_>
          2 9 2 6 -1.</_>
        <_>
          3 9 1 6 2.</_></rects>
      <tilted>0</tilted></_>
    <_>
      <rects>
        <_>
          2 10 6 6 -1.</_>
        <_>
          2 12 6 2 3.</_></rects>
      <tilted>0</tilted></_>
    <_>
      <rects>
        <_>
          2 11 10 3 -1.</_>
        <_>
          2 12 10 1 3.</_></rects>
      <tilted>0</tilted></_>
    <_>
      <rects>
        <_>
          3 0 13 6 -1.</_>
        <_>
          3 2 13 2 3.</_></rects>
      <tilted>0</tilted></_>
    <_>
      <rects>
        <_>
          3 3 3 1 -1.</_>
        <_>
          4 3 1 1 3.</_></rects>
      <tilted>0</tilted></_>
    <_>
      <rects>
        <_>
          3 6 10 7 -1.</_>
        <_>
          8 6 5 7 2.</_></rects>
      <tilted>0</tilted></_>
    <_>
      <rects>
        <_>
          3 11 23 6 -1.</_>
        <_>
          3 13 23 2 3.</_></rects>
      <tilted>0</tilted></_>
    <_>
      <rects>
        <_>
          4 0 3 3 -1.</_>
        <_>
          5 0 1 3 3.</_></rects>
      <tilted>0</tilted></_>
    <_>
      <rects>
        <_>
          4 4 12 2 -1.</_>
        <_>
          4 5 12 1 2.</_></rects>
      <tilted>0</tilted></_>
    <_>
      <rects>
        <_>
          4 5 32 4 -1.</_>
        <_>
          4 5 16 2 2.</_>
        <_>
          20 7 16 2 2.</_></rects>
      <tilted>0</tilted></_>
    <_>
      <rects>
        <_>
          4 5 52 12 -1.</_>
        <_>
          4 11 52 6 2.</_></rects>
      <tilted>0</tilted></_>
    <_>
      <rects>
        <_>
          4 17 6 3 -1.</_>
        <_>
          6 17 2 3 3.</_></rects>
      <tilted>0</tilted></_>
    <_>
      <rects>
        <_>
          5 0 3 4 -1.</_>
        <_>
          6 0 1 4 3.</_></rects>
      <tilted>0</tilted></_>
    <_>
      <rects>
        <_>
